{"learner":{"attributes":{"scikit_learn":"{\"_estimator_type\": \"regressor\"}"},"feature_names":["duration","bit_rate","favorites_track","album_tracks_count","album_listens","album_favorites","genre_top_Classical","genre_top_Country","genre_top_Easy Listening","genre_top_Electronic","genre_top_Experimental","genre_top_Folk","genre_top_Hip-Hop","genre_top_Instrumental","genre_top_International","genre_top_Jazz","genre_top_Old-Time / Historic","genre_top_Pop","genre_top_Rock","genre_top_Soul-RnB","genre_top_Spoken","genre_top_Unknown"],"feature_types":["float","float","float","int","int","int","i","i","i","i","i","i","i","i","i","i","i","i","i","i","i","i"],"gradient_booster":{"model":{"gbtree_model_param":{"num_parallel_tree":"1","num_trees":"120"},"iteration_indptr":[0,1,2,3,4,5,6,7,8,9,10,11,12,13,14,15,16,17,18,19,20,21,22,23,24,25,26,27,28,29,30,31,32,33,34,35,36,37,38,39,40,41,42,43,44,45,46,47,48,49,50,51,52,53,54,55,56,57,58,59,60,61,62,63,64,65,66,67,68,69,70,71,72,73,74,75,76,77,78,79,80,81,82,83,84,85,86,87,88,89,90,91,92,93,94,95,96,97,98,99,100,101,102,103,104,105,106,107,108,109,110,111,112,113,114,115,116,117,118,119,120],"tree_info":[0,0,0,0,0,0,0,0,0,0,0,0,0,0,0,0,0,0,0,0,0,0,0,0,0,0,0,0,0,0,0,0,0,0,0,0,0,0,0,0,0,0,0,0,0,0,0,0,0,0,0,0,0,0,0,0,0,0,0,0,0,0,0,0,0,0,0,0,0,0,0,0,0,0,0,0,0,0,0,0,0,0,0,0,0,0,0,0,0,0,0,0,0,0,0,0,0,0,0,0,0,0,0,0,0,0,0,0,0,0,0,0,0,0,0,0,0,0,0,0],"trees":[{"base_weights":[7.569603E-8,-5.0259423E-1,1.3851694E0,-9.884026E-1,3.0967185E-2,1.0099642E0,2.7453094E0,-7.2740984E-1,-1.3369107E0,2.8391764E-1,-5.9640956E-1,5.7175046E-1,1.5014639E0,2.3098183E0,3.5797486E0,-1.0470074E0,-3.1086618E-1,-1.7166667E0,-9.964774E-1,2.3669036E-2,7.7853155E-1,-8.4070075E-1,5.03416E-2,4.2883214E-1,1.0163428E0,1.317543E0,1.9579189E0,1.9990604E0,2.6928558E0,3.2772932E0,4.405456E0,-7.2330034E-1,-1.4342428E0,1.23962596E-1,-5.09577E-1,-2.3075376E0,-1.5251328E0,-8.7280416E-1,-1.3910683E0,4.7090694E-1,-2.3250563E-1,5.630609E-1,1.1108072E0,-6.828605E-1,-1.2325546E0,-8.1364356E-2,2.36173E0,1.7036757E-1,6.7299825E-1,1.2710446E0,8.672319E-1,1.7401057E0,1.1298229E0,1.7971894E0,2.4043193E0,1.7588152E0,2.2119243E0,2.5033255E0,2.9015498E0,2.2280513E-1,3.376138E0,3.228658E-1,4.0516052E-1,-8.310466E-2,-2.7764017E-2,-1.6848531E-1,-9.691917E-2,3.474605E-2,-2.3290177E-3,-5.4687433E-2,-1.9265354E-2,-2.0055583E-1,-1.6085614E-1,-1.20308585E-1,-2.3175028E-1,-7.84844E-2,-5.640711E-2,-1.2842672E-1,-9.8123156E-2,5.8351476E-2,2.2903796E-2,-3.6542438E-2,-2.1410557E-3,6.9248505E-2,2.445471E-2,1.1307012E-1,8.321707E-2,-8.338585E-2,-2.9781675E-2,-2.3400502E-2,-1.01806484E-1,3.0802576E-2,-5.9253693E-2,2.0078087E-1,5.2817695E-2,4.6207547E-2,-9.06609E-3,9.245809E-2,3.9788216E-2,8.229225E-2,1.335112E-1,4.8937052E-3,7.411991E-2,1.2186218E-1,1.5708409E-1,7.62013E-2,1.1114203E-1,1.2366319E-1,1.6608368E-1,1.8376057E-1,2.5547153E-1,1.2734398E-1,1.5945032E-1,1.9130519E-1,1.6485482E-1,2.2085226E-1,1.8896362E-1,2.2171623E-1,2.4815549E-1,2.550104E-1,2.835974E-1],"categories":[],"categories_nodes":[],"categories_segments":[],"categories_sizes":[],"default_left":[0,0,0,0,0,0,0,0,0,0,0,0,0,0,0,0,0,0,0,0,0,0,0,0,0,0,0,0,0,0,0,0,0,0,0,0,0,0,0,0,0,0,0,0,0,0,0,0,0,0,0,0,0,0,0,0,0,0,0,0,0,0,0,0,0,0,0,0,0,0,0,0,0,0,0,0,0,0,0,0,0,0,0,0,0,0,0,0,0,0,0,0,0,0,0,0,0,0,0,0,0,0,0,0,0,0,0,0,0,0,0,0,0,0,0,0,0,0,0,0,0],"id":0,"left_children":[1,3,5,7,9,11,13,15,17,19,21,23,25,27,29,31,33,35,37,39,41,43,45,47,49,51,53,55,57,59,61,63,65,67,69,71,73,75,77,79,81,83,85,87,89,91,93,95,97,99,101,103,105,107,109,111,113,115,117,-1,119,-1,-1,-1,-1,-1,-1,-1,-1,-1,-1,-1,-1,-1,-1,-1,-1,-1,-1,-1,-1,-1,-1,-1,-1,-1,-1,-1,-1,-1,-1,-1,-1,-1,-1,-1,-1,-1,-1,-1,-1,-1,-1,-1,-1,-1,-1,-1,-1,-1,-1,-1,-1,-1,-1,-1,-1,-1,-1,-1,-1],"loss_changes":[3.8864844E4,1.0617993E4,7.582285E3,1.9492598E3,3.0983762E3,2.5085566E3,1.1593066E3,1.6320698E3,1.1850957E3,1.7910276E3,8.8639746E2,3.910365E2,4.5839844E2,2.4625E2,2.6027637E2,8.686465E2,4.6017072E2,4.8741992E2,2.3512549E2,1.0447681E3,3.4281885E2,2.5101294E2,4.687001E2,2.9422235E2,5.5789795E1,3.0874463E2,1.0868506E2,5.599414E1,3.0075195E1,2.9958008E1,5.0694336E1,4.484817E2,4.700459E2,7.940005E1,1.7077441E2,5.7702637E1,9.1339355E1,6.630127E1,3.8712646E1,1.5826624E2,2.67524E2,2.2648773E2,3.8813965E1,3.2394165E2,4.357605E1,4.4831036E2,1.9248688E1,2.6196664E2,2.0274927E2,5.14187E1,4.5231934E1,5.5293457E1,1.2357373E2,7.82522E1,2.7721436E1,1.8546753E1,1.1812012E1,1.1729736E1,2.9523926E0,0E0,9.991699E0,0E0,0E0,0E0,0E0,0E0,0E0,0E0,0E0,0E0,0E0,0E0,0E0,0E0,0E0,0E0,0E0,0E0,0E0,0E0,0E0,0E0,0E0,0E0,0E0,0E0,0E0,0E0,0E0,0E0,0E0,0E0,0E0,0E0,0E0,0E0,0E0,0E0,0E0,0E0,0E0,0E0,0E0,0E0,0E0,0E0,0E0,0E0,0E0,0E0,0E0,0E0,0E0,0E0,0E0,0E0,0E0,0E0,0E0,0E0,0E0],"parents":[2147483647,0,0,1,1,2,2,3,3,4,4,5,5,6,6,7,7,8,8,9,9,10,10,11,11,12,12,13,13,14,14,15,15,16,16,17,17,18,18,19,19,20,20,21,21,22,22,23,23,24,24,25,25,26,26,27,27,28,28,29,29,30,30,31,31,32,32,33,33,34,34,35,35,36,36,37,37,38,38,39,39,40,40,41,41,42,42,43,43,44,44,45,45,46,46,47,47,48,48,49,49,50,50,51,51,52,52,53,53,54,54,55,55,56,56,57,57,58,58,60,60],"right_children":[2,4,6,8,10,12,14,16,18,20,22,24,26,28,30,32,34,36,38,40,42,44,46,48,50,52,54,56,58,60,62,64,66,68,70,72,74,76,78,80,82,84,86,88,90,92,94,96,98,100,102,104,106,108,110,112,114,116,118,-1,120,-1,-1,-1,-1,-1,-1,-1,-1,-1,-1,-1,-1,-1,-1,-1,-1,-1,-1,-1,-1,-1,-1,-1,-1,-1,-1,-1,-1,-1,-1,-1,-1,-1,-1,-1,-1,-1,-1,-1,-1,-1,-1,-1,-1,-1,-1,-1,-1,-1,-1,-1,-1,-1,-1,-1,-1,-1,-1,-1,-1],"split_conditions":[3E0,5.45E3,1.1E1,1E1,2.4E1,1.6972E4,2.5E1,2.127E3,2.894E3,1.4379E4,3.4336E4,6E0,6.4079E4,5.9807E4,6.8E1,5E0,6E0,1.348E3,2E1,1E1,2.6651E4,1E0,1.6648E5,6.273E3,4E0,1E1,1.6648E5,1.4E1,1.2827E5,3.3588E4,1.32E2,1E0,8.43E2,4E0,3.803E3,9.7E2,4.9E1,1E0,4.243E3,7E0,8.328E3,1.3E1,1E1,1.195E4,3.1E1,9.7E1,2.4E2,4E0,7E0,3.457E3,3.503E3,2.5728E4,3.4336E4,6E0,8.7E1,2.1967E4,2E0,1.1E1,1.9E1,2.2280513E-1,3.6E1,3.228658E-1,4.0516052E-1,-8.310466E-2,-2.7764017E-2,-1.6848531E-1,-9.691917E-2,3.474605E-2,-2.3290177E-3,-5.4687433E-2,-1.9265354E-2,-2.0055583E-1,-1.6085614E-1,-1.20308585E-1,-2.3175028E-1,-7.84844E-2,-5.640711E-2,-1.2842672E-1,-9.8123156E-2,5.8351476E-2,2.2903796E-2,-3.6542438E-2,-2.1410557E-3,6.9248505E-2,2.445471E-2,1.1307012E-1,8.321707E-2,-8.338585E-2,-2.9781675E-2,-2.3400502E-2,-1.01806484E-1,3.0802576E-2,-5.9253693E-2,2.0078087E-1,5.2817695E-2,4.6207547E-2,-9.06609E-3,9.245809E-2,3.9788216E-2,8.229225E-2,1.335112E-1,4.8937052E-3,7.411991E-2,1.2186218E-1,1.5708409E-1,7.62013E-2,1.1114203E-1,1.2366319E-1,1.6608368E-1,1.8376057E-1,2.5547153E-1,1.2734398E-1,1.5945032E-1,1.9130519E-1,1.6485482E-1,2.2085226E-1,1.8896362E-1,2.2171623E-1,2.4815549E-1,2.550104E-1,2.835974E-1],"split_indices":[2,4,2,3,3,4,2,4,4,4,4,2,4,4,2,3,3,4,3,3,4,10,4,4,3,3,4,2,4,4,2,2,4,3,4,4,3,2,4,3,4,3,3,4,0,3,0,3,3,4,4,4,4,2,3,4,5,3,2,0,2,0,0,0,0,0,0,0,0,0,0,0,0,0,0,0,0,0,0,0,0,0,0,0,0,0,0,0,0,0,0,0,0,0,0,0,0,0,0,0,0,0,0,0,0,0,0,0,0,0,0,0,0,0,0,0,0,0,0,0,0],"split_type":[0,0,0,0,0,0,0,0,0,0,0,0,0,0,0,0,0,0,0,0,0,0,0,0,0,0,0,0,0,0,0,0,0,0,0,0,0,0,0,0,0,0,0,0,0,0,0,0,0,0,0,0,0,0,0,0,0,0,0,0,0,0,0,0,0,0,0,0,0,0,0,0,0,0,0,0,0,0,0,0,0,0,0,0,0,0,0,0,0,0,0,0,0,0,0,0,0,0,0,0,0,0,0,0,0,0,0,0,0,0,0,0,0,0,0,0,0,0,0,0,0],"sum_hessian":[5.5824E4,4.0962E4,1.4862E4,2.144E4,1.9522E4,1.165E4,3.212E3,1.2261E4,9.179E3,1.3913E4,5.609E3,6.16E3,5.49E3,2.113E3,1.099E3,6.937E3,5.324E3,4.337E3,4.842E3,9.117E3,4.796E3,4.071E3,1.538E3,4.663E3,1.497E3,3.916E3,1.574E3,1.17E3,9.43E2,8.08E2,2.91E2,3.78E3,3.157E3,1.67E3,3.654E3,1.059E3,3.278E3,3.689E3,1.153E3,3.32E3,5.797E3,2.911E3,1.885E3,2.904E3,1.167E3,1.456E3,8.2E1,2.266E3,2.397E3,5.5E2,9.47E2,1.202E3,2.714E3,1.161E3,4.13E2,5.54E2,6.16E2,5.01E2,4.42E2,1.4E2,6.68E2,1.91E2,1E2,2.055E3,1.725E3,7.84E2,2.373E3,5.51E2,1.119E3,2.217E3,1.437E3,6.29E2,4.3E2,3.23E3,4.8E1,2.239E3,1.45E3,4.97E2,6.56E2,1.382E3,1.938E3,2.773E3,3.024E3,1.337E3,1.574E3,3.53E2,1.532E3,1.345E3,1.559E3,4.8E1,1.119E3,8.53E2,6.03E2,7.5E1,7E0,9.3E2,1.336E3,6.38E2,1.759E3,3.44E2,2.06E2,6.5E1,8.82E2,6.14E2,5.88E2,1.615E3,1.099E3,6.14E2,5.47E2,3.67E2,4.6E1,3.28E2,2.26E2,2.75E2,3.41E2,1.71E2,3.3E2,2.77E2,1.65E2,3.25E2,3.43E2],"tree_param":{"num_deleted":"0","num_feature":"22","num_nodes":"121","size_leaf_vector":"1"}},{"base_weights":[6.268265E-5,-4.624154E-1,1.27467E0,-9.061373E-1,3.2422412E-2,9.039922E-1,2.4435344E0,-5.8622247E-1,-1.1491799E0,2.6937976E-1,-5.486991E-1,5.129802E-1,1.3553718E0,2.064853E0,3.2947226E0,-9.1093814E-1,-1.7174597E-1,-1.7264918E0,-9.3602914E-1,8.243104E-3,6.8217105E-1,-6.19192E-1,1.3711826E0,3.4689692E-1,8.1270915E-1,1.2075509E0,1.8245333E0,1.7793416E0,2.4466417E0,3.0294464E0,4.095035E0,-5.8010036E-1,-1.2215583E0,2.2798242E-1,-3.3250847E-1,-2.2108932E0,-1.5068078E0,-7.4324816E-1,-1.2215255E0,4.207656E-1,-2.3604596E-1,4.9174905E-1,1.0155735E0,-8.294243E-1,-2.3609105E-1,9.15178E-1,1.9501728E-1,6.910703E-2,5.5987144E-1,1.0377651E0,6.551857E-1,1.5986453E0,1.0458641E0,1.6580856E0,2.2025616E0,1.5810062E0,2.0355475E0,2.2215426E0,2.605174E0,2.5692296E0,3.1206985E0,3.069008E-1,3.9384082E-1,-7.39367E-2,-1.5500219E-2,-1.6482168E-1,-8.541012E-2,-5.150022E-2,2.371916E-2,-4.504009E-2,-5.4049366E-3,-1.722966E-1,-2.5960043E-1,-1.08736955E-1,-1.3292553E-1,-8.105845E-2,-4.7340516E-2,-1.2051199E-1,-8.587426E-2,6.0356043E-2,2.3896076E-2,-8.797473E-3,-4.115357E-2,7.1326844E-2,2.585951E-2,6.3211605E-2,8.797664E-2,-4.9372904E-2,-8.7619595E-2,1.943731E-2,-6.1225336E-2,9.605133E-2,1.3149306E-2,3.5646982E-2,-1.6841065E-2,6.703481E-2,2.3316886E-2,6.273249E-2,1.08082056E-1,2.2565996E-2,6.316057E-2,1.16385646E-1,1.5453672E-1,6.7916036E-2,1.0066166E-1,1.5731712E-1,1.1308262E-1,1.6733786E-1,2.3546866E-1,1.0565964E-1,1.3810311E-1,1.4951774E-1,1.7443334E-1,1.9565645E-1,1.6762233E-1,1.9932519E-1,2.2451322E-1,1.9138546E-1,2.2731645E-1,2.3467211E-1,2.6242462E-1],"categories":[],"categories_nodes":[],"categories_segments":[],"categories_sizes":[],"default_left":[0,0,0,0,0,0,0,0,0,0,0,0,0,0,0,0,0,0,0,0,0,0,0,0,0,0,0,0,0,0,0,0,0,0,0,0,0,0,0,0,0,0,0,0,0,0,0,0,0,0,0,0,0,0,0,0,0,0,0,0,0,0,0,0,0,0,0,0,0,0,0,0,0,0,0,0,0,0,0,0,0,0,0,0,0,0,0,0,0,0,0,0,0,0,0,0,0,0,0,0,0,0,0,0,0,0,0,0,0,0,0,0,0,0,0,0,0,0,0,0,0],"id":1,"left_children":[1,3,5,7,9,11,13,15,17,19,21,23,25,27,29,31,33,35,37,39,41,43,45,47,49,51,53,55,57,59,61,63,65,67,69,71,73,75,77,79,81,83,85,87,89,91,-1,93,95,97,99,101,103,105,107,109,111,113,115,117,119,-1,-1,-1,-1,-1,-1,-1,-1,-1,-1,-1,-1,-1,-1,-1,-1,-1,-1,-1,-1,-1,-1,-1,-1,-1,-1,-1,-1,-1,-1,-1,-1,-1,-1,-1,-1,-1,-1,-1,-1,-1,-1,-1,-1,-1,-1,-1,-1,-1,-1,-1,-1,-1,-1,-1,-1,-1,-1,-1,-1],"loss_changes":[3.29082E4,8.994292E3,6.4375137E3,1.6785547E3,2.6670034E3,1.9912266E3,1.1464902E3,1.2550022E3,1.5085088E3,1.483037E3,7.600957E2,3.0083704E2,3.610625E2,2.6586914E2,2.211289E2,5.366489E2,2.6341876E2,3.4868945E2,4.9251025E2,8.494288E2,3.3795068E2,4.3568774E2,9.4551575E1,2.3033875E2,7.5753784E1,2.5038184E2,7.518945E1,6.904053E1,3.1967773E1,2.6839355E1,3.917871E1,3.367047E2,3.458667E2,7.0421646E1,1.784646E2,5.3921387E1,4.9799316E1,2.1837964E2,1.5077002E2,1.27466736E2,1.8574515E2,2.2844824E2,3.5868896E1,1.96469E2,4.8670908E2,3.0023117E1,0E0,1.7810797E2,1.6425177E2,6.932959E1,6.3475708E1,5.294873E1,1.170061E2,6.3132812E1,2.5044434E1,2.8196167E1,1.0814209E1,7.442383E0,7.0683594E0,8.911133E-2,1.0944824E1,0E0,0E0,0E0,0E0,0E0,0E0,0E0,0E0,0E0,0E0,0E0,0E0,0E0,0E0,0E0,0E0,0E0,0E0,0E0,0E0,0E0,0E0,0E0,0E0,0E0,0E0,0E0,0E0,0E0,0E0,0E0,0E0,0E0,0E0,0E0,0E0,0E0,0E0,0E0,0E0,0E0,0E0,0E0,0E0,0E0,0E0,0E0,0E0,0E0,0E0,0E0,0E0,0E0,0E0,0E0,0E0,0E0,0E0,0E0,0E0],"parents":[2147483647,0,0,1,1,2,2,3,3,4,4,5,5,6,6,7,7,8,8,9,9,10,10,11,11,12,12,13,13,14,14,15,15,16,16,17,17,18,18,19,19,20,20,21,21,22,22,23,23,24,24,25,25,26,26,27,27,28,28,29,29,30,30,31,31,32,32,33,33,34,34,35,35,36,36,37,37,38,38,39,39,40,40,41,41,42,42,43,43,44,44,45,45,47,47,48,48,49,49,50,50,51,51,52,52,53,53,54,54,55,55,56,56,57,57,58,58,59,59,60,60],"right_children":[2,4,6,8,10,12,14,16,18,20,22,24,26,28,30,32,34,36,38,40,42,44,46,48,50,52,54,56,58,60,62,64,66,68,70,72,74,76,78,80,82,84,86,88,90,92,-1,94,96,98,100,102,104,106,108,110,112,114,116,118,120,-1,-1,-1,-1,-1,-1,-1,-1,-1,-1,-1,-1,-1,-1,-1,-1,-1,-1,-1,-1,-1,-1,-1,-1,-1,-1,-1,-1,-1,-1,-1,-1,-1,-1,-1,-1,-1,-1,-1,-1,-1,-1,-1,-1,-1,-1,-1,-1,-1,-1,-1,-1,-1,-1,-1,-1,-1,-1,-1,-1],"split_conditions":[3E0,5.509E3,1E1,8E0,2.4E1,1.6972E4,2.5E1,1.774E3,2.012E3,1.3309E4,1.04248E5,5E0,7.2962E4,5.9807E4,7E1,3E0,5E0,1.017E3,1.4E1,1E1,2.6153E4,2.7071E4,6.87266E5,5.3E3,5E0,1E1,1.6648E5,1.4E1,1.10874E5,3.3588E4,1.84E2,1E0,5.22E2,1E0,3.312E3,3.3E1,1.2E1,3.032E3,3.07E3,6E0,1.6E1,1.1E1,1E0,4.3E1,7.2E1,1E0,1.9501728E-1,4E0,1E1,3.563E3,6.516E3,3.3588E4,5E0,1.7E1,8.7E1,1.3106E4,2.1356E4,1.1E1,1.9E1,3.8E1,3.6E1,3.069008E-1,3.9384082E-1,-7.39367E-2,-1.5500219E-2,-1.6482168E-1,-8.541012E-2,-5.150022E-2,2.371916E-2,-4.504009E-2,-5.4049366E-3,-1.722966E-1,-2.5960043E-1,-1.08736955E-1,-1.3292553E-1,-8.105845E-2,-4.7340516E-2,-1.2051199E-1,-8.587426E-2,6.0356043E-2,2.3896076E-2,-8.797473E-3,-4.115357E-2,7.1326844E-2,2.585951E-2,6.3211605E-2,8.797664E-2,-4.9372904E-2,-8.7619595E-2,1.943731E-2,-6.1225336E-2,9.605133E-2,1.3149306E-2,3.5646982E-2,-1.6841065E-2,6.703481E-2,2.3316886E-2,6.273249E-2,1.08082056E-1,2.2565996E-2,6.316057E-2,1.16385646E-1,1.5453672E-1,6.7916036E-2,1.0066166E-1,1.5731712E-1,1.1308262E-1,1.6733786E-1,2.3546866E-1,1.0565964E-1,1.3810311E-1,1.4951774E-1,1.7443334E-1,1.9565645E-1,1.6762233E-1,1.9932519E-1,2.2451322E-1,1.9138546E-1,2.2731645E-1,2.3467211E-1,2.6242462E-1],"split_indices":[2,4,2,3,3,4,2,4,4,4,4,2,4,4,2,3,3,4,3,3,4,4,4,4,3,3,4,2,4,4,2,2,4,3,4,3,3,4,4,3,3,3,2,3,3,11,0,3,3,4,4,4,2,3,3,4,4,3,2,2,2,0,0,0,0,0,0,0,0,0,0,0,0,0,0,0,0,0,0,0,0,0,0,0,0,0,0,0,0,0,0,0,0,0,0,0,0,0,0,0,0,0,0,0,0,0,0,0,0,0,0,0,0,0,0,0,0,0,0,0,0],"split_type":[0,0,0,0,0,0,0,0,0,0,0,0,0,0,0,0,0,0,0,0,0,0,0,0,0,0,0,0,0,0,0,0,0,0,0,0,0,0,0,0,0,0,0,0,0,0,0,0,0,0,0,0,0,0,0,0,0,0,0,0,0,0,0,0,0,0,0,0,0,0,0,0,0,0,0,0,0,0,0,0,0,0,0,0,0,0,0,0,0,0,0,0,0,0,0,0,0,0,0,0,0,0,0,0,0,0,0,0,0,0,0,0,0,0,0,0,0,0,0,0,0],"sum_hessian":[5.5824E4,4.0962E4,1.4862E4,2.1596E4,1.9366E4,1.1285E4,3.577E3,9.325E3,1.2271E4,1.3757E4,5.609E3,6.048E3,5.237E3,2.478E3,1.099E3,5.228E3,4.097E3,3.307E3,8.964E3,8.427E3,5.33E3,5.411E3,1.98E2,3.893E3,2.155E3,3.985E3,1.252E3,1.421E3,1.057E3,8.29E2,2.7E2,2.533E3,2.695E3,1.175E3,2.922E3,1.029E3,2.278E3,5.353E3,3.611E3,3.134E3,5.293E3,3.394E3,1.936E3,3.493E3,1.918E3,1.4E2,5.8E1,1.69E3,2.203E3,8.85E2,1.27E3,1.163E3,2.822E3,8.73E2,3.79E2,8.05E2,6.16E2,4.43E2,6.14E2,1.42E2,6.87E2,2.1E2,6E1,1.339E3,1.194E3,4.16E2,2.279E3,8.5E1,1.09E3,1.562E3,1.36E3,9.78E2,5.1E1,1.171E3,1.107E3,1.922E3,3.431E3,1.232E3,2.379E3,8.38E2,2.296E3,3.644E3,1.649E3,1.005E3,2.389E3,5.29E2,1.407E3,1.944E3,1.549E3,1.007E3,9.11E2,1.01E2,3.9E1,7.2E2,9.7E2,1.081E3,1.122E3,4.91E2,3.94E2,3.37E2,9.33E2,8.16E2,3.47E2,1.467E3,1.355E3,3.83E2,4.9E2,3.33E2,4.6E1,2.92E2,5.13E2,2.93E2,3.23E2,1.53E2,2.9E2,4.01E2,2.13E2,9.2E1,5E1,3.25E2,3.62E2],"tree_param":{"num_deleted":"0","num_feature":"22","num_nodes":"121","size_leaf_vector":"1"}},{"base_weights":[1.1915354E-4,-4.2544702E-1,1.1729959E0,-8.0689293E-1,6.596908E-2,8.318038E-1,2.248882E0,-5.825057E-1,-1.0866207E0,2.9530975E-1,-4.720145E-1,4.789131E-1,1.2557851E0,1.9002115E0,3.0326145E0,-8.3661044E-1,-1.409041E-1,-1.4569838E0,-8.153667E-1,1.2216271E-1,7.900237E-1,-5.3892684E-1,1.2630168E0,3.2480782E-1,7.5563747E-1,9.845783E-1,1.4773847E0,1.5502739E0,2.167044E0,2.8248887E0,3.909857E0,-5.6999594E-1,-1.0977576E0,1.176352E-1,-3.7444758E-1,-1.9636136E0,-1.2927617E0,-6.945312E-1,-1.1856068E0,4.4676694E-1,-1.11159794E-1,5.8153015E-1,9.4094497E-1,-3.6998084E-1,-9.7387296E-1,8.4273833E-1,1.7968032E-1,6.358954E-2,5.193408E-1,9.555202E-1,6.20188E-1,1.3613079E0,7.921228E-1,1.3486898E0,1.8810054E0,1.4014106E0,1.8412322E0,1.9849343E0,2.3974495E0,2.6889148E0,2.528071E-1,2.9004166E-1,3.6285007E-1,-6.138349E-2,-9.468544E-3,-1.2787187E-1,-6.747591E-2,3.083044E-2,-2.1899599E-3,-4.2379163E-2,-1.7827703E-2,-1.760427E-1,-1.423768E-1,-1.0186139E-1,-2.041444E-1,-6.873143E-2,-4.5413774E-2,-1.0295452E-1,-7.7112086E-2,1.5076078E-2,5.047352E-2,-2.223157E-2,1.0796061E-2,8.05937E-2,3.8039796E-2,9.758031E-2,7.007589E-2,-6.902511E-2,-1.2650918E-2,-9.018681E-2,-6.03524E-2,8.8442564E-2,1.2123663E-2,3.2799184E-2,-1.5495178E-2,8.353773E-2,3.148538E-2,5.772407E-2,9.9445626E-2,-6.8812363E-4,5.5318344E-2,1.2888575E-1,9.8529495E-2,6.971214E-2,2.361095E-2,1.22157E-1,7.646891E-2,1.4530128E-1,2.1703193E-1,1.2390656E-1,9.802073E-2,1.6147055E-1,1.3294323E-1,1.895367E-1,1.4993204E-1,1.8989341E-1,2.789991E-1,1.8315594E-1,2.2203432E-1],"categories":[],"categories_nodes":[],"categories_segments":[],"categories_sizes":[],"default_left":[0,0,0,0,0,0,0,0,0,0,0,0,0,0,0,0,0,0,0,0,0,0,0,0,0,0,0,0,0,0,0,0,0,0,0,0,0,0,0,0,0,0,0,0,0,0,0,0,0,0,0,0,0,0,0,0,0,0,0,0,0,0,0,0,0,0,0,0,0,0,0,0,0,0,0,0,0,0,0,0,0,0,0,0,0,0,0,0,0,0,0,0,0,0,0,0,0,0,0,0,0,0,0,0,0,0,0,0,0,0,0,0,0,0,0,0,0,0,0],"id":2,"left_children":[1,3,5,7,9,11,13,15,17,19,21,23,25,27,29,31,33,35,37,39,41,43,45,47,49,51,53,55,57,59,61,63,65,67,69,71,73,75,77,79,81,83,85,87,89,91,-1,93,95,97,99,101,103,105,107,109,111,113,115,117,-1,-1,-1,-1,-1,-1,-1,-1,-1,-1,-1,-1,-1,-1,-1,-1,-1,-1,-1,-1,-1,-1,-1,-1,-1,-1,-1,-1,-1,-1,-1,-1,-1,-1,-1,-1,-1,-1,-1,-1,-1,-1,-1,-1,-1,-1,-1,-1,-1,-1,-1,-1,-1,-1,-1,-1,-1,-1,-1],"loss_changes":[2.7864805E4,7.6785127E3,5.4540977E3,1.4469062E3,2.2089153E3,1.6879995E3,9.719785E2,1.4360967E3,1.02996E3,1.0750858E3,6.219049E2,2.6248853E2,3.0661426E2,2.2811621E2,1.8940332E2,5.650132E2,2.823817E2,3.583828E2,2.643391E2,7.0433246E2,1.0184363E2,3.7829443E2,8.031976E1,2.0114581E2,5.9051514E1,1.6626025E2,1.4389307E2,4.402466E1,5.4151367E1,3.22041E1,2.0564941E1,3.5829895E2,5.2103467E2,8.620352E1,5.772577E1,4.2268555E1,7.723096E1,9.287793E1,3.148999E1,1.8487848E2,2.2207898E2,6.1342804E1,3.3108765E1,3.8751526E2,4.7682617E1,2.5443848E1,0E0,1.5078404E2,1.4937958E2,5.8845886E1,5.8998657E1,2.3248901E1,6.0025513E1,1.4847607E2,3.164087E1,1.66958E1,8.121338E0,2.9191406E1,7.6643066E0,1.5833496E1,0E0,0E0,0E0,0E0,0E0,0E0,0E0,0E0,0E0,0E0,0E0,0E0,0E0,0E0,0E0,0E0,0E0,0E0,0E0,0E0,0E0,0E0,0E0,0E0,0E0,0E0,0E0,0E0,0E0,0E0,0E0,0E0,0E0,0E0,0E0,0E0,0E0,0E0,0E0,0E0,0E0,0E0,0E0,0E0,0E0,0E0,0E0,0E0,0E0,0E0,0E0,0E0,0E0,0E0,0E0,0E0,0E0,0E0,0E0],"parents":[2147483647,0,0,1,1,2,2,3,3,4,4,5,5,6,6,7,7,8,8,9,9,10,10,11,11,12,12,13,13,14,14,15,15,16,16,17,17,18,18,19,19,20,20,21,21,22,22,23,23,24,24,25,25,26,26,27,27,28,28,29,29,30,30,31,31,32,32,33,33,34,34,35,35,36,36,37,37,38,38,39,39,40,40,41,41,42,42,43,43,44,44,45,45,47,47,48,48,49,49,50,50,51,51,52,52,53,53,54,54,55,55,56,56,57,57,58,58,59,59],"right_children":[2,4,6,8,10,12,14,16,18,20,22,24,26,28,30,32,34,36,38,40,42,44,46,48,50,52,54,56,58,60,62,64,66,68,70,72,74,76,78,80,82,84,86,88,90,92,-1,94,96,98,100,102,104,106,108,110,112,114,116,118,-1,-1,-1,-1,-1,-1,-1,-1,-1,-1,-1,-1,-1,-1,-1,-1,-1,-1,-1,-1,-1,-1,-1,-1,-1,-1,-1,-1,-1,-1,-1,-1,-1,-1,-1,-1,-1,-1,-1,-1,-1,-1,-1,-1,-1,-1,-1,-1,-1,-1,-1,-1,-1,-1,-1,-1,-1,-1,-1],"split_conditions":[3E0,6.109E3,1E1,1E1,2.4E1,1.7534E4,2.5E1,2.597E3,2.894E3,1.8606E4,1.04248E5,5E0,3.4336E4,3.4336E4,8.3E1,5E0,7E0,1.348E3,2E1,1.1E1,2.6651E4,1E0,6.87266E5,5.3E3,5E0,1E1,1.10874E5,1.5E1,1.10874E5,4.8E1,1.84E2,1.017E3,1.168E3,5E0,4.018E3,8.43E2,4.9E1,4.063E3,1E0,8.449E3,1.1224E4,1E1,1E1,1.195E4,2.3947E4,1E0,1.7968032E-1,4E0,6E0,3.563E3,4.193E3,6E0,2.8E1,2E1,9.7E1,2E0,2E0,8E0,9.7E1,3.3588E4,2.528071E-1,2.9004166E-1,3.6285007E-1,-6.138349E-2,-9.468544E-3,-1.2787187E-1,-6.747591E-2,3.083044E-2,-2.1899599E-3,-4.2379163E-2,-1.7827703E-2,-1.760427E-1,-1.423768E-1,-1.0186139E-1,-2.041444E-1,-6.873143E-2,-4.5413774E-2,-1.0295452E-1,-7.7112086E-2,1.5076078E-2,5.047352E-2,-2.223157E-2,1.0796061E-2,8.05937E-2,3.8039796E-2,9.758031E-2,7.007589E-2,-6.902511E-2,-1.2650918E-2,-9.018681E-2,-6.03524E-2,8.8442564E-2,1.2123663E-2,3.2799184E-2,-1.5495178E-2,8.353773E-2,3.148538E-2,5.772407E-2,9.9445626E-2,-6.8812363E-4,5.5318344E-2,1.2888575E-1,9.8529495E-2,6.971214E-2,2.361095E-2,1.22157E-1,7.646891E-2,1.4530128E-1,2.1703193E-1,1.2390656E-1,9.802073E-2,1.6147055E-1,1.3294323E-1,1.895367E-1,1.4993204E-1,1.8989341E-1,2.789991E-1,1.8315594E-1,2.2203432E-1],"split_indices":[2,4,2,3,3,4,2,4,4,4,4,2,4,4,2,3,3,4,3,3,4,10,4,4,3,3,4,2,4,2,2,4,4,3,4,4,3,4,2,4,4,3,3,4,4,11,0,3,3,4,4,3,3,3,3,5,5,3,3,4,0,0,0,0,0,0,0,0,0,0,0,0,0,0,0,0,0,0,0,0,0,0,0,0,0,0,0,0,0,0,0,0,0,0,0,0,0,0,0,0,0,0,0,0,0,0,0,0,0,0,0,0,0,0,0,0,0,0,0],"split_type":[0,0,0,0,0,0,0,0,0,0,0,0,0,0,0,0,0,0,0,0,0,0,0,0,0,0,0,0,0,0,0,0,0,0,0,0,0,0,0,0,0,0,0,0,0,0,0,0,0,0,0,0,0,0,0,0,0,0,0,0,0,0,0,0,0,0,0,0,0,0,0,0,0,0,0,0,0,0,0,0,0,0,0,0,0,0,0,0,0,0,0,0,0,0,0,0,0,0,0,0,0,0,0,0,0,0,0,0,0,0,0,0,0,0,0,0,0,0,0],"sum_hessian":[5.5824E4,4.0962E4,1.4862E4,2.3061E4,1.7901E4,1.1285E4,3.577E3,1.2798E4,1.0263E4,1.2551E4,5.35E3,6.16E3,5.125E3,2.478E3,1.099E3,8.123E3,4.675E3,4.337E3,5.926E3,9.298E3,3.253E3,5.152E3,1.98E2,3.958E3,2.202E3,2.307E3,2.818E3,1.075E3,1.403E3,8.92E2,2.07E2,4.021E3,4.102E3,2.219E3,2.456E3,1.059E3,3.278E3,4.47E3,1.456E3,3.888E3,5.41E3,1.368E3,1.885E3,3.712E3,1.44E3,1.4E2,5.8E1,1.69E3,2.268E3,8.87E2,1.315E3,7.78E2,1.529E3,2.14E3,6.78E2,7.15E2,3.6E2,7.89E2,6.14E2,6.41E2,2.51E2,1.47E2,6E1,2.798E3,1.223E3,1.38E3,2.722E3,7.79E2,1.44E3,1.212E3,1.244E3,4.58E2,6.01E2,3.23E3,4.8E1,1.943E3,2.527E3,9.96E2,4.6E2,1.619E3,2.269E3,3.225E3,2.185E3,2.71E2,1.097E3,3.53E2,1.532E3,1.115E3,2.597E3,8.45E2,5.95E2,1.01E2,3.9E1,7.2E2,9.7E2,4.37E2,1.831E3,4.91E2,3.96E2,1.34E2,1.181E3,2.62E2,5.16E2,1.318E3,2.11E2,1.47E3,6.7E2,6.32E2,4.6E1,3.85E2,3.3E2,1.76E2,1.84E2,1.72E2,6.17E2,6.04E2,1E1,1.19E2,5.22E2],"tree_param":{"num_deleted":"0","num_feature":"22","num_nodes":"119","size_leaf_vector":"1"}},{"base_weights":[1.6396536E-4,-3.9143145E-1,1.079416E0,-7.423942E-1,6.071321E-2,7.3664373E-1,1.9909871E0,-9.35731E-1,-4.5386505E-1,2.7171203E-1,-4.342444E-1,3.903199E-1,1.0863098E0,1.6302094E0,2.6521978E0,-1.1282319E0,-6.500481E-1,-1.7021613E-1,-6.5551853E-1,1.2838404E-1,7.804046E-1,-4.9585778E-1,1.1633836E0,1.7181228E-1,5.4775715E-1,8.578621E-1,1.3278155E0,1.3335238E0,1.9016856E0,2.3954356E0,3.2799108E0,-8.638837E-1,-1.3799812E0,-2.8727803E-1,-9.1643494E-1,-4.37736E-1,8.622671E-2,-1.0869541E0,-4.7768423E-1,5.4465187E-1,-1.628798E-2,9.9832034E-1,6.7747444E-1,-2.51165E-1,-7.751262E-1,6.587894E-1,1.8606625E0,-1.6865226E-2,3.9040062E-1,7.202842E-1,3.8300502E-1,1.0551268E0,5.3859377E-1,1.2441065E0,1.8721995E0,1.199828E0,1.5461153E0,1.7602853E0,2.11868E0,2.0152812E0,2.4956574E0,2.4354842E-1,3.1819403E-1,-8.7103635E-2,-4.683341E-2,-1.4422305E-1,-9.640187E-2,1.6160562E-3,-3.56063E-2,-5.8828067E-2,-8.906641E-2,-4.3181474E-3,-6.548763E-2,3.2851387E-2,-2.3423976E-3,-1.3779421E-1,-7.630992E-2,-2.3165151E-2,-5.5084776E-2,2.945038E-2,6.0416613E-2,-1.5605528E-2,1.7258063E-2,6.328779E-2,8.5237995E-2,4.3440856E-2,8.50682E-2,-4.675401E-2,1.7836882E-2,-7.873629E-2,-3.9010223E-2,7.332241E-2,1.1178023E-2,1.58752E-1,3.6205903E-2,3.150655E-2,-1.4050428E-2,5.6596775E-2,1.4995814E-2,3.5728373E-2,7.7106245E-2,1.2873271E-2,4.6957374E-2,1.1689776E-1,7.7655874E-2,4.6002593E-2,-9.893253E-3,1.08335786E-1,6.0331933E-2,1.414022E-1,2.0003879E-1,7.772401E-2,1.07409485E-1,1.4335479E-1,1.1431315E-1,1.7215E-1,1.3309567E-1,2.0399408E-1,1.6591705E-1,1.7102629E-1,1.4217311E-1,2.2350082E-1,1.9260189E-1],"categories":[],"categories_nodes":[],"categories_segments":[],"categories_sizes":[],"default_left":[0,0,0,0,0,0,0,0,0,0,0,0,0,0,0,0,0,0,0,0,0,0,0,0,0,0,0,0,0,0,0,0,0,0,0,0,0,0,0,0,0,0,0,0,0,0,0,0,0,0,0,0,0,0,0,0,0,0,0,0,0,0,0,0,0,0,0,0,0,0,0,0,0,0,0,0,0,0,0,0,0,0,0,0,0,0,0,0,0,0,0,0,0,0,0,0,0,0,0,0,0,0,0,0,0,0,0,0,0,0,0,0,0,0,0,0,0,0,0,0,0,0,0],"id":3,"left_children":[1,3,5,7,9,11,13,15,17,19,21,23,25,27,29,31,33,35,37,39,41,43,45,47,49,51,53,55,57,59,61,63,65,67,69,71,73,75,77,79,81,83,85,87,89,91,93,95,97,99,101,103,105,107,109,111,113,115,117,119,121,-1,-1,-1,-1,-1,-1,-1,-1,-1,-1,-1,-1,-1,-1,-1,-1,-1,-1,-1,-1,-1,-1,-1,-1,-1,-1,-1,-1,-1,-1,-1,-1,-1,-1,-1,-1,-1,-1,-1,-1,-1,-1,-1,-1,-1,-1,-1,-1,-1,-1,-1,-1,-1,-1,-1,-1,-1,-1,-1,-1,-1,-1],"loss_changes":[2.3593752E4,6.500296E3,4.6426445E3,1.2860508E3,1.8697219E3,1.3077944E3,9.644287E2,7.58626E2,5.292633E2,9.150649E2,5.27304E2,1.8667029E2,2.9540723E2,2.0929297E2,2.2294336E2,5.47708E2,5.37136E2,2.6395563E2,4.144812E2,5.898261E2,6.1208496E1,3.519353E2,6.8790955E1,9.383374E1,8.9402405E1,1.7357214E2,1.1665332E2,3.395752E1,3.8336914E1,3.383252E1,5.5748535E1,2.5151196E2,3.102173E2,1.1432297E2,1.1348999E2,2.751719E2,7.3644844E1,1.3180676E2,1.5181549E2,9.360773E1,3.015579E2,1.1444824E1,9.681378E1,4.343344E2,1.4414343E2,1.5524658E1,1.3563263E1,7.974892E1,6.769025E1,1.0221515E2,7.3106766E1,5.714209E1,2.56026E1,1.212063E2,1.8334595E1,2.4055176E1,1.1354858E1,2.8040527E1,5.0476074E0,2.5621338E0,1.4371094E1,0E0,0E0,0E0,0E0,0E0,0E0,0E0,0E0,0E0,0E0,0E0,0E0,0E0,0E0,0E0,0E0,0E0,0E0,0E0,0E0,0E0,0E0,0E0,0E0,0E0,0E0,0E0,0E0,0E0,0E0,0E0,0E0,0E0,0E0,0E0,0E0,0E0,0E0,0E0,0E0,0E0,0E0,0E0,0E0,0E0,0E0,0E0,0E0,0E0,0E0,0E0,0E0,0E0,0E0,0E0,0E0,0E0,0E0,0E0,0E0,0E0,0E0],"parents":[2147483647,0,0,1,1,2,2,3,3,4,4,5,5,6,6,7,7,8,8,9,9,10,10,11,11,12,12,13,13,14,14,15,15,16,16,17,17,18,18,19,19,20,20,21,21,22,22,23,23,24,24,25,25,26,26,27,27,28,28,29,29,30,30,31,31,32,32,33,33,34,34,35,35,36,36,37,37,38,38,39,39,40,40,41,41,42,42,43,43,44,44,45,45,46,46,47,47,48,48,49,49,50,50,51,51,52,52,53,53,54,54,55,55,56,56,57,57,58,58,59,59,60,60],"right_children":[2,4,6,8,10,12,14,16,18,20,22,24,26,28,30,32,34,36,38,40,42,44,46,48,50,52,54,56,58,60,62,64,66,68,70,72,74,76,78,80,82,84,86,88,90,92,94,96,98,100,102,104,106,108,110,112,114,116,118,120,122,-1,-1,-1,-1,-1,-1,-1,-1,-1,-1,-1,-1,-1,-1,-1,-1,-1,-1,-1,-1,-1,-1,-1,-1,-1,-1,-1,-1,-1,-1,-1,-1,-1,-1,-1,-1,-1,-1,-1,-1,-1,-1,-1,-1,-1,-1,-1,-1,-1,-1,-1,-1,-1,-1,-1,-1,-1,-1,-1,-1,-1,-1],"split_conditions":[3E0,6.109E3,9E0,1E0,2.4E1,1.4887E4,2.1E1,2.894E3,7E0,2.0988E4,1.04248E5,4E0,3.4336E4,3.4336E4,5.2E1,8E0,1.1E1,1.606E3,2.476E3,9E0,1.2E1,5.2E1,1.6648E5,6.273E3,6E0,1.4E1,1.6648E5,1.3E1,1.10874E5,3.3588E4,1.32E2,1.063E3,1.348E3,7E0,1.6E1,2E0,4E0,1.017E3,1.2E1,9.406E3,1.1224E4,1E0,5.3704E4,1.8315E4,3.0188E4,1E0,2.4E2,3E0,9E0,3.207E3,8.328E3,6E0,6.8E1,3E1,8.7E1,1.0016E4,1E0,8E0,8E0,5E0,4E0,2.4354842E-1,3.1819403E-1,-8.7103635E-2,-4.683341E-2,-1.4422305E-1,-9.640187E-2,1.6160562E-3,-3.56063E-2,-5.8828067E-2,-8.906641E-2,-4.3181474E-3,-6.548763E-2,3.2851387E-2,-2.3423976E-3,-1.3779421E-1,-7.630992E-2,-2.3165151E-2,-5.5084776E-2,2.945038E-2,6.0416613E-2,-1.5605528E-2,1.7258063E-2,6.328779E-2,8.5237995E-2,4.3440856E-2,8.50682E-2,-4.675401E-2,1.7836882E-2,-7.873629E-2,-3.9010223E-2,7.332241E-2,1.1178023E-2,1.58752E-1,3.6205903E-2,3.150655E-2,-1.4050428E-2,5.6596775E-2,1.4995814E-2,3.5728373E-2,7.7106245E-2,1.2873271E-2,4.6957374E-2,1.1689776E-1,7.7655874E-2,4.6002593E-2,-9.893253E-3,1.08335786E-1,6.0331933E-2,1.414022E-1,2.0003879E-1,7.772401E-2,1.07409485E-1,1.4335479E-1,1.1431315E-1,1.7215E-1,1.3309567E-1,2.0399408E-1,1.6591705E-1,1.7102629E-1,1.4217311E-1,2.2350082E-1,1.9260189E-1],"split_indices":[2,4,2,2,3,4,2,4,3,4,4,2,4,4,2,3,3,4,4,3,3,3,4,4,3,3,4,2,4,4,2,4,4,3,3,3,3,4,3,4,4,2,4,4,4,11,0,3,3,4,4,3,3,3,3,4,5,3,3,3,5,0,0,0,0,0,0,0,0,0,0,0,0,0,0,0,0,0,0,0,0,0,0,0,0,0,0,0,0,0,0,0,0,0,0,0,0,0,0,0,0,0,0,0,0,0,0,0,0,0,0,0,0,0,0,0,0,0,0,0,0,0,0],"split_type":[0,0,0,0,0,0,0,0,0,0,0,0,0,0,0,0,0,0,0,0,0,0,0,0,0,0,0,0,0,0,0,0,0,0,0,0,0,0,0,0,0,0,0,0,0,0,0,0,0,0,0,0,0,0,0,0,0,0,0,0,0,0,0,0,0,0,0,0,0,0,0,0,0,0,0,0,0,0,0,0,0,0,0,0,0,0,0,0,0,0,0,0,0,0,0,0,0,0,0,0,0,0,0,0,0,0,0,0,0,0,0,0,0,0,0,0,0,0,0,0,0,0,0],"sum_hessian":[5.5824E4,4.0962E4,1.4862E4,2.3061E4,1.7901E4,1.0802E4,4.06E3,1.3807E4,9.254E3,1.2551E4,5.35E3,5.428E3,5.374E3,2.629E3,1.431E3,8.247E3,5.56E3,3.846E3,5.408E3,9.793E3,2.758E3,5.152E3,1.98E2,2.274E3,3.154E3,2.764E3,2.61E3,1.259E3,1.37E3,1.019E3,4.12E2,4.025E3,4.222E3,2.355E3,3.205E3,1.882E3,1.964E3,1.577E3,3.831E3,2.525E3,7.268E3,8.82E2,1.876E3,2.747E3,2.405E3,1.16E2,8.2E1,1.221E3,1.053E3,1.539E3,1.615E3,1.707E3,1.057E3,2.265E3,3.45E2,7.77E2,4.82E2,8.35E2,5.35E2,2.17E2,8.02E2,3.12E2,1E2,2.225E3,1.8E3,1.233E3,2.989E3,7.99E2,1.556E3,1.672E3,1.533E3,9.38E2,9.44E2,5.15E2,1.449E3,2.71E2,1.306E3,2.026E3,1.805E3,1.375E3,1.15E3,4.105E3,3.163E3,2.19E2,6.63E2,1.393E3,4.83E2,1.613E3,1.134E3,1.391E3,1.014E3,7.7E1,3.9E1,7.5E1,7E0,3.4E2,8.81E2,4.1E2,6.43E2,7.26E2,8.13E2,7.74E2,8.41E2,2.91E2,1.416E3,1.002E3,5.5E1,1.848E3,4.17E2,2.99E2,4.6E1,3.02E2,4.75E2,1.51E2,3.31E2,1.61E2,6.74E2,4.5E1,4.9E2,1.38E2,7.9E1,1.76E2,6.26E2],"tree_param":{"num_deleted":"0","num_feature":"22","num_nodes":"123","size_leaf_vector":"1"}},{"base_weights":[2.0501191E-4,-3.601264E-1,9.932923E-1,-7.755619E-1,-3.214674E-2,7.229275E-1,1.9733815E0,-4.8179436E-1,-9.706502E-1,1.4364403E-1,-4.160703E-1,4.1384414E-1,1.0836202E0,1.6898059E0,2.6461031E0,-7.3487747E-1,-1.6817676E-1,-1.4885846E0,-8.2913804E-1,-1.1748203E-1,4.685663E-1,-5.89999E-1,1.3656156E-1,3.0562437E-1,7.481808E-1,9.0466654E-1,1.339183E0,1.4455746E0,1.9695762E0,2.458405E0,3.3430407E0,-4.806994E-1,-1.1110276E0,2.3648314E-1,-3.1253004E-1,-1.8366019E0,-1.3128309E0,-6.9770354E-1,-1.0983363E0,3.0621752E-1,-2.7553242E-1,3.3639395E-1,7.9045755E-1,-7.959091E-1,-3.984071E-1,5.991865E-1,-1.9015937E-1,1.0683011E-1,4.8744148E-1,1.0842909E0,6.579896E-1,1.2228636E0,7.5518435E-1,1.0721873E0,1.5034398E0,1.305553E0,1.6814473E0,1.8922304E0,2.326523E0,1.622068E-1,2.5190177E0,2.4716808E-1,3.092597E-1,-6.013111E-2,-1.2885713E-2,-1.3334943E-1,-7.469058E-2,-5.5977866E-2,2.5939949E-2,-4.2780843E-2,-1.3498049E-2,-1.8096106E-1,-1.3594824E-1,-9.254999E-2,-1.2432966E-1,-6.921228E-2,-4.307521E-2,-7.8014866E-2,-1.019089E-1,3.7335783E-2,1.4012969E-2,-1.4660182E-2,-4.187216E-2,4.2167168E-2,5.9795347E-3,4.8467644E-2,6.905827E-2,-6.815413E-2,-1.2132221E-2,-1.402714E-2,-7.1962714E-2,3.411441E-2,8.346068E-2,-2.592608E-2,1.5188357E-1,3.290963E-2,-8.424953E-3,5.809501E-2,2.120402E-2,7.4528374E-2,1.2479958E-1,1.6380893E-2,5.99609E-2,1.097414E-1,8.449985E-2,6.3511126E-2,4.3943953E-3,-1.9951083E-3,9.047748E-2,1.1101335E-1,1.3732344E-1,9.3650274E-2,1.1823983E-1,1.4670305E-1,1.2013149E-1,1.399372E-1,1.6375741E-1,1.6833709E-1,2.0082416E-1,1.9191608E-1,2.172654E-1],"categories":[],"categories_nodes":[],"categories_segments":[],"categories_sizes":[],"default_left":[0,0,0,0,0,0,0,0,0,0,0,0,0,0,0,0,0,0,0,0,0,0,0,0,0,0,0,0,0,0,0,0,0,0,0,0,0,0,0,0,0,0,0,0,0,0,0,0,0,0,0,0,0,0,0,0,0,0,0,0,0,0,0,0,0,0,0,0,0,0,0,0,0,0,0,0,0,0,0,0,0,0,0,0,0,0,0,0,0,0,0,0,0,0,0,0,0,0,0,0,0,0,0,0,0,0,0,0,0,0,0,0,0,0,0,0,0,0,0,0,0],"id":4,"left_children":[1,3,5,7,9,11,13,15,17,19,21,23,25,27,29,31,33,35,37,39,41,43,45,47,49,51,53,55,57,59,61,63,65,67,69,71,73,75,77,79,81,83,85,87,89,91,93,95,97,99,101,103,105,107,109,111,113,115,117,-1,119,-1,-1,-1,-1,-1,-1,-1,-1,-1,-1,-1,-1,-1,-1,-1,-1,-1,-1,-1,-1,-1,-1,-1,-1,-1,-1,-1,-1,-1,-1,-1,-1,-1,-1,-1,-1,-1,-1,-1,-1,-1,-1,-1,-1,-1,-1,-1,-1,-1,-1,-1,-1,-1,-1,-1,-1,-1,-1,-1,-1],"loss_changes":[1.9976807E4,5.5813647E3,3.936995E3,1.035249E3,1.545046E3,1.2984536E3,6.084629E2,5.7246106E2,7.9466504E2,1.3323866E3,6.911727E2,2.2684851E2,2.4465332E2,1.5178125E2,1.16186035E2,3.811377E2,1.883422E2,1.4004248E2,3.0107715E2,5.831563E2,2.9742236E2,2.1543872E2,2.6039294E2,1.7137988E2,4.5788513E1,1.4961914E2,9.539746E1,3.7833984E1,2.4641602E1,1.4555176E1,1.4418945E1,2.0633295E2,1.5709668E2,6.990477E1,7.5841324E1,4.163965E1,5.656714E1,1.5247876E2,5.921753E1,4.967935E1,1.449674E2,2.4754193E2,2.6829346E1,9.496716E1,3.1675357E2,5.4253845E1,2.831246E2,1.4650467E2,1.3132397E2,2.2007294E1,5.0120605E1,2.3608887E1,5.8390747E1,5.4587097E1,3.1343994E1,1.606897E1,9.517578E0,1.5672363E1,2.194336E0,0E0,8.98584E0,0E0,0E0,0E0,0E0,0E0,0E0,0E0,0E0,0E0,0E0,0E0,0E0,0E0,0E0,0E0,0E0,0E0,0E0,0E0,0E0,0E0,0E0,0E0,0E0,0E0,0E0,0E0,0E0,0E0,0E0,0E0,0E0,0E0,0E0,0E0,0E0,0E0,0E0,0E0,0E0,0E0,0E0,0E0,0E0,0E0,0E0,0E0,0E0,0E0,0E0,0E0,0E0,0E0,0E0,0E0,0E0,0E0,0E0,0E0,0E0],"parents":[2147483647,0,0,1,1,2,2,3,3,4,4,5,5,6,6,7,7,8,8,9,9,10,10,11,11,12,12,13,13,14,14,15,15,16,16,17,17,18,18,19,19,20,20,21,21,22,22,23,23,24,24,25,25,26,26,27,27,28,28,29,29,30,30,31,31,32,32,33,33,34,34,35,35,36,36,37,37,38,38,39,39,40,40,41,41,42,42,43,43,44,44,45,45,46,46,47,47,48,48,49,49,50,50,51,51,52,52,53,53,54,54,55,55,56,56,57,57,58,58,60,60],"right_children":[2,4,6,8,10,12,14,16,18,20,22,24,26,28,30,32,34,36,38,40,42,44,46,48,50,52,54,56,58,60,62,64,66,68,70,72,74,76,78,80,82,84,86,88,90,92,94,96,98,100,102,104,106,108,110,112,114,116,118,-1,120,-1,-1,-1,-1,-1,-1,-1,-1,-1,-1,-1,-1,-1,-1,-1,-1,-1,-1,-1,-1,-1,-1,-1,-1,-1,-1,-1,-1,-1,-1,-1,-1,-1,-1,-1,-1,-1,-1,-1,-1,-1,-1,-1,-1,-1,-1,-1,-1,-1,-1,-1,-1,-1,-1,-1,-1,-1,-1,-1,-1],"split_conditions":[3E0,4.285E3,1.1E1,7E0,2.1E1,1.7534E4,2.8E1,1.307E3,1.525E3,9.878E3,3.4336E4,6E0,4.9859E4,5.9807E4,8.5E1,3E0,4E0,8.43E2,1.4E1,8E0,2.3268E4,1.2491E4,4E1,6.273E3,2E0,1E1,5E0,1.6E1,2.97933E5,2.8664E4,1.84E2,1E0,5.22E2,1E0,2.215E3,4.6E2,1.2E1,2.724E3,1.9E1,6E0,1.5E1,1.3E1,1E0,2E0,8.8E1,6.9609E4,1.6648E5,4E0,1E1,2.937E3,4.285E3,2E0,5E1,1.0601E5,1.10874E5,2.1967E4,3E0,1.7E1,1.1E1,1.622068E-1,4.8E1,2.4716808E-1,3.092597E-1,-6.013111E-2,-1.2885713E-2,-1.3334943E-1,-7.469058E-2,-5.5977866E-2,2.5939949E-2,-4.2780843E-2,-1.3498049E-2,-1.8096106E-1,-1.3594824E-1,-9.254999E-2,-1.2432966E-1,-6.921228E-2,-4.307521E-2,-7.8014866E-2,-1.019089E-1,3.7335783E-2,1.4012969E-2,-1.4660182E-2,-4.187216E-2,4.2167168E-2,5.9795347E-3,4.8467644E-2,6.905827E-2,-6.815413E-2,-1.2132221E-2,-1.402714E-2,-7.1962714E-2,3.411441E-2,8.346068E-2,-2.592608E-2,1.5188357E-1,3.290963E-2,-8.424953E-3,5.809501E-2,2.120402E-2,7.4528374E-2,1.2479958E-1,1.6380893E-2,5.99609E-2,1.097414E-1,8.449985E-2,6.3511126E-2,4.3943953E-3,-1.9951083E-3,9.047748E-2,1.1101335E-1,1.3732344E-1,9.3650274E-2,1.1823983E-1,1.4670305E-1,1.2013149E-1,1.399372E-1,1.6375741E-1,1.6833709E-1,2.0082416E-1,1.9191608E-1,2.172654E-1],"split_indices":[2,4,2,3,3,4,2,4,4,4,4,2,4,4,2,3,3,4,3,3,4,4,3,4,3,3,2,2,4,4,2,2,4,3,4,4,3,4,3,3,3,3,2,2,3,4,4,3,3,4,4,5,3,1,4,4,5,2,5,0,2,0,0,0,0,0,0,0,0,0,0,0,0,0,0,0,0,0,0,0,0,0,0,0,0,0,0,0,0,0,0,0,0,0,0,0,0,0,0,0,0,0,0,0,0,0,0,0,0,0,0,0,0,0,0,0,0,0,0,0,0],"split_type":[0,0,0,0,0,0,0,0,0,0,0,0,0,0,0,0,0,0,0,0,0,0,0,0,0,0,0,0,0,0,0,0,0,0,0,0,0,0,0,0,0,0,0,0,0,0,0,0,0,0,0,0,0,0,0,0,0,0,0,0,0,0,0,0,0,0,0,0,0,0,0,0,0,0,0,0,0,0,0,0,0,0,0,0,0,0,0,0,0,0,0,0,0,0,0,0,0,0,0,0,0,0,0,0,0,0,0,0,0,0,0,0,0,0,0,0,0,0,0,0,0],"sum_hessian":[5.5824E4,4.0962E4,1.4862E4,1.8071E4,2.2891E4,1.165E4,3.212E3,7.213E3,1.0858E4,1.5702E4,7.189E3,6.275E3,5.375E3,2.262E3,9.5E2,3.991E3,3.222E3,2.328E3,8.53E3,8.706E3,6.996E3,5.468E3,1.721E3,4.742E3,1.533E3,3.164E3,2.211E3,1.211E3,1.051E3,7.52E2,1.98E2,2.383E3,1.608E3,8.47E2,2.375E3,7.78E2,1.55E3,5.734E3,2.796E3,2.365E3,6.341E3,4.961E3,2.035E3,2.634E3,2.834E3,7.12E2,1.009E3,2.266E3,2.476E3,3.22E2,1.211E3,1.009E3,2.155E3,8.45E2,1.366E3,7.64E2,4.47E2,8.69E2,1.82E2,9.7E1,6.55E2,1.38E2,6E1,1.289E3,1.094E3,3.87E2,1.221E3,7.2E1,7.75E2,9.32E2,1.443E3,1.86E2,5.92E2,9.45E2,6.05E2,2.793E3,2.941E3,1.647E3,1.149E3,1.062E3,1.303E3,4.622E3,1.719E3,2.869E3,2.092E3,5.78E2,1.457E3,2.423E3,2.11E2,1.962E3,8.72E2,5.14E2,1.98E2,9.49E2,6E1,9.3E2,1.336E3,1.193E3,1.283E3,2.46E2,7.6E1,2.04E2,1.007E3,5.29E2,4.8E2,2.042E3,1.13E2,4.3E1,8.02E2,8.9E2,4.76E2,4.33E2,3.31E2,2.37E2,2.1E2,4.58E2,4.11E2,8.8E1,9.4E1,4.15E2,2.4E2],"tree_param":{"num_deleted":"0","num_feature":"22","num_nodes":"121","size_leaf_vector":"1"}},{"base_weights":[2.2986346E-4,-3.3133963E-1,9.140481E-1,-6.708066E-1,1.02049885E-2,6.225336E-1,1.6893046E0,-4.9009013E-1,-9.200854E-1,2.3936798E-1,-2.8591517E-1,3.0667606E-1,8.9891744E-1,1.4361049E0,2.3695667E0,-7.294151E-1,-2.4371102E-1,-1.4723692E0,-8.142571E-1,5.868171E-2,5.903795E-1,-5.7777464E-1,-3.7863143E-2,5.054664E-1,1.4389284E-1,7.094803E-1,1.1271892E0,1.161563E0,1.6653047E0,2.1660743E0,2.9252372E0,-4.3646675E-1,-1.0187497E0,1.6914658E-1,-3.417188E-1,-1.6811868E0,-1.2968712E0,-9.752936E-1,-6.6768044E-1,4.1589275E-1,-7.234476E-2,4.6473643E-1,7.963035E-1,-4.4915214E-1,-8.506808E-1,2.6694512E-1,-4.5897102E-1,2.546777E-1,7.641098E-1,-5.0367427E-1,2.336482E-1,1.0465704E0,5.719197E-1,1.0537915E0,1.604623E0,1.04427E0,1.3940891E0,1.5261223E0,1.8543047E0,1.7885382E0,2.224174E0,2.1362956E-1,2.70462E-1,-5.4364976E-2,-1.23268245E-2,-1.289598E-1,-7.0229374E-2,-4.9055446E-2,1.8489815E-2,-3.8280673E-2,-1.3536091E-2,-1.2806922E-1,-2.0345628E-1,-1.06020115E-1,-5.5270188E-2,-7.6636724E-2,-1.7274E-1,-4.645947E-2,-7.594667E-2,2.2573855E-2,4.9488004E-2,-1.7239867E-2,7.0139794E-3,6.869534E-2,3.0903889E-2,4.7492664E-2,6.982435E-2,-4.9994476E-2,-1.6172688E-2,-6.437583E-2,-1.4635228E-1,7.6176906E-3,5.070396E-2,-4.2188346E-2,1.3993208E-1,5.907129E-2,4.2056506E-3,9.302721E-2,5.0900355E-2,-8.865323E-2,-3.581049E-2,9.414513E-3,2.9117627E-2,1.2381269E-2,8.613828E-2,5.5059183E-2,2.8091928E-2,9.852571E-2,6.413584E-2,1.2056478E-1,1.7545801E-1,1.02483645E-1,7.4894235E-2,1.1819996E-1,9.152496E-2,1.4661291E-1,1.14054695E-1,1.4675292E-1,2.3164801E-1,1.5091209E-1,1.1953048E-1,1.995246E-1,1.715462E-1],"categories":[],"categories_nodes":[],"categories_segments":[],"categories_sizes":[],"default_left":[0,0,0,0,0,0,0,0,0,0,0,0,0,0,0,0,0,0,0,0,0,0,0,0,0,0,0,0,0,0,0,0,0,0,0,0,0,0,0,0,0,0,0,0,0,0,0,0,0,0,0,0,0,0,0,0,0,0,0,0,0,0,0,0,0,0,0,0,0,0,0,0,0,0,0,0,0,0,0,0,0,0,0,0,0,0,0,0,0,0,0,0,0,0,0,0,0,0,0,0,0,0,0,0,0,0,0,0,0,0,0,0,0,0,0,0,0,0,0,0,0,0,0],"id":5,"left_children":[1,3,5,7,9,11,13,15,17,19,21,23,25,27,29,31,33,35,37,39,41,43,45,47,49,51,53,55,57,59,61,63,65,67,69,71,73,75,77,79,81,83,85,87,89,91,93,95,97,99,101,103,105,107,109,111,113,115,117,119,121,-1,-1,-1,-1,-1,-1,-1,-1,-1,-1,-1,-1,-1,-1,-1,-1,-1,-1,-1,-1,-1,-1,-1,-1,-1,-1,-1,-1,-1,-1,-1,-1,-1,-1,-1,-1,-1,-1,-1,-1,-1,-1,-1,-1,-1,-1,-1,-1,-1,-1,-1,-1,-1,-1,-1,-1,-1,-1,-1,-1,-1,-1],"loss_changes":[1.6914955E4,4.7493853E3,3.3579639E3,9.2503125E2,1.3857651E3,9.428042E2,6.9607324E2,7.022095E2,5.0337695E2,7.3009033E2,6.4495703E2,1.631174E2,2.4832373E2,1.8444922E2,1.1804541E2,5.1167578E2,2.3761752E2,4.864917E1,1.704082E2,3.557881E2,1.0084473E2,1.432898E2,6.18419E2,1.4704858E2,1.6134982E2,1.455144E2,8.9805176E1,3.5391113E1,3.957422E1,1.376709E1,2.487378E1,2.0610687E2,2.5257935E2,5.4785873E1,1.1189453E2,3.954883E1,1.2120728E1,6.875708E1,9.242224E1,5.512155E1,1.2742966E2,7.481952E1,2.2441162E1,1.2074451E2,5.7483826E1,1.7601825E2,3.063928E2,1.12778435E2,5.620459E1,1.0954582E1,3.6787643E1,2.4361633E1,5.7281616E1,1.00568115E2,1.6564026E1,2.1886108E1,7.694275E0,2.6143799E1,8.753662E0,4.3719482E-1,9.671875E0,0E0,0E0,0E0,0E0,0E0,0E0,0E0,0E0,0E0,0E0,0E0,0E0,0E0,0E0,0E0,0E0,0E0,0E0,0E0,0E0,0E0,0E0,0E0,0E0,0E0,0E0,0E0,0E0,0E0,0E0,0E0,0E0,0E0,0E0,0E0,0E0,0E0,0E0,0E0,0E0,0E0,0E0,0E0,0E0,0E0,0E0,0E0,0E0,0E0,0E0,0E0,0E0,0E0,0E0,0E0,0E0,0E0,0E0,0E0,0E0,0E0,0E0],"parents":[2147483647,0,0,1,1,2,2,3,3,4,4,5,5,6,6,7,7,8,8,9,9,10,10,11,11,12,12,13,13,14,14,15,15,16,16,17,17,18,18,19,19,20,20,21,21,22,22,23,23,24,24,25,25,26,26,27,27,28,28,29,29,30,30,31,31,32,32,33,33,34,34,35,35,36,36,37,37,38,38,39,39,40,40,41,41,42,42,43,43,44,44,45,45,46,46,47,47,48,48,49,49,50,50,51,51,52,52,53,53,54,54,55,55,56,56,57,57,58,58,59,59,60,60],"right_children":[2,4,6,8,10,12,14,16,18,20,22,24,26,28,30,32,34,36,38,40,42,44,46,48,50,52,54,56,58,60,62,64,66,68,70,72,74,76,78,80,82,84,86,88,90,92,94,96,98,100,102,104,106,108,110,112,114,116,118,120,122,-1,-1,-1,-1,-1,-1,-1,-1,-1,-1,-1,-1,-1,-1,-1,-1,-1,-1,-1,-1,-1,-1,-1,-1,-1,-1,-1,-1,-1,-1,-1,-1,-1,-1,-1,-1,-1,-1,-1,-1,-1,-1,-1,-1,-1,-1,-1,-1,-1,-1,-1,-1,-1,-1,-1,-1,-1,-1,-1,-1,-1,-1],"split_conditions":[3E0,5.14E3,9E0,1E1,1.7E1,1.3309E4,2.5E1,1.774E3,1.564E3,1.2645E4,1.5747E4,6E0,3.4336E4,3.4336E4,6.8E1,4E0,5E0,9.7E2,3.07E3,8E0,2.3268E4,3.4E1,5E1,3.163E3,3.312E3,9E0,1.6648E5,1.4E1,1.10874E5,2.8664E4,1.32E2,1E0,6.37E2,1E0,3.312E3,3.3E1,2E0,4.9E1,2E1,7.929E3,7.929E3,8E0,1E0,1E0,1E0,3.8602E4,1.6648E5,0E0,3E0,1.168E3,8.328E3,1E0,1.7E1,1.8E1,8.7E1,1E0,4E0,9E0,9.7E1,5E0,4E0,2.1362956E-1,2.70462E-1,-5.4364976E-2,-1.23268245E-2,-1.289598E-1,-7.0229374E-2,-4.9055446E-2,1.8489815E-2,-3.8280673E-2,-1.3536091E-2,-1.2806922E-1,-2.0345628E-1,-1.06020115E-1,-5.5270188E-2,-7.6636724E-2,-1.7274E-1,-4.645947E-2,-7.594667E-2,2.2573855E-2,4.9488004E-2,-1.7239867E-2,7.0139794E-3,6.869534E-2,3.0903889E-2,4.7492664E-2,6.982435E-2,-4.9994476E-2,-1.6172688E-2,-6.437583E-2,-1.4635228E-1,7.6176906E-3,5.070396E-2,-4.2188346E-2,1.3993208E-1,5.907129E-2,4.2056506E-3,9.302721E-2,5.0900355E-2,-8.865323E-2,-3.581049E-2,9.414513E-3,2.9117627E-2,1.2381269E-2,8.613828E-2,5.5059183E-2,2.8091928E-2,9.852571E-2,6.413584E-2,1.2056478E-1,1.7545801E-1,1.02483645E-1,7.4894235E-2,1.1819996E-1,9.152496E-2,1.4661291E-1,1.14054695E-1,1.4675292E-1,2.3164801E-1,1.5091209E-1,1.1953048E-1,1.995246E-1,1.715462E-1],"split_indices":[2,4,2,3,3,4,2,4,4,4,4,3,4,4,2,3,3,4,4,3,4,3,3,4,4,3,4,2,4,4,2,2,4,3,4,3,2,3,3,4,4,3,2,2,20,4,4,3,3,4,4,3,3,3,3,5,5,3,3,3,5,0,0,0,0,0,0,0,0,0,0,0,0,0,0,0,0,0,0,0,0,0,0,0,0,0,0,0,0,0,0,0,0,0,0,0,0,0,0,0,0,0,0,0,0,0,0,0,0,0,0,0,0,0,0,0,0,0,0,0,0,0,0],"split_type":[0,0,0,0,0,0,0,0,0,0,0,0,0,0,0,0,0,0,0,0,0,0,0,0,0,0,0,0,0,0,0,0,0,0,0,0,0,0,0,0,0,0,0,0,0,0,0,0,0,0,0,0,0,0,0,0,0,0,0,0,0,0,0,0,0,0,0,0,0,0,0,0,0,0,0,0,0,0,0,0,0,0,0,0,0,0,0,0,0,0,0,0,0,0,0,0,0,0,0,0,0,0,0,0,0,0,0,0,0,0,0,0,0,0,0,0,0,0,0,0,0,0,0],"sum_hessian":[5.5824E4,4.0962E4,1.4862E4,2.0543E4,2.0419E4,1.0802E4,4.06E3,1.1911E4,8.632E3,1.1511E4,8.908E3,5.042E3,5.76E3,2.961E3,1.099E3,6.041E3,5.87E3,1.386E3,7.246E3,7.6E3,3.911E3,4.092E3,4.816E3,2.269E3,2.773E3,3.15E3,2.61E3,1.35E3,1.611E3,8.08E2,2.91E2,3.003E3,3.038E3,1.126E3,4.744E3,6.29E2,7.57E2,3.45E3,3.796E3,2.039E3,5.561E3,2.431E3,1.48E3,2.783E3,1.309E3,2.794E3,2.022E3,1.153E3,1.116E3,3.37E2,2.436E3,9.11E2,2.239E3,2.265E3,3.45E2,9.01E2,4.49E2,9.33E2,6.78E2,1.12E2,6.96E2,1.91E2,1E2,1.613E3,1.39E3,5.81E2,2.457E3,8.2E1,1.044E3,2.645E3,2.099E3,5.78E2,5.1E1,7.22E2,3.5E1,3.402E3,4.8E1,2.903E3,8.93E2,1.23E3,8.09E2,2.935E3,2.626E3,4.02E2,2.029E3,4.08E2,1.072E3,1.625E3,1.158E3,1.252E3,5.7E1,1.904E3,8.9E2,1.962E3,6E1,3.39E2,8.14E2,2.69E2,8.47E2,2.7E1,3.1E2,1.29E3,1.146E3,3E1,8.81E2,1.465E3,7.74E2,1.326E3,9.39E2,2.99E2,4.6E1,2.79E2,6.22E2,3.33E2,1.16E2,2.26E2,7.07E2,6.68E2,1E1,8E1,3.2E1,1.52E2,5.44E2],"tree_param":{"num_deleted":"0","num_feature":"22","num_nodes":"123","size_leaf_vector":"1"}},{"base_weights":[2.4480716E-4,-2.5160614E-1,1.0243564E0,-5.46928E-1,1.1531966E-1,8.04162E-1,1.8402649E0,-7.3745024E-1,-2.9726756E-1,2.4405588E-1,-4.0741315E-1,5.7933545E-1,1.1600709E0,1.616522E0,2.375484E0,-9.503852E-1,-5.80129E-1,-7.1560815E-2,-4.676416E-1,1.14067554E-1,6.0606915E-1,-4.9065706E-1,9.7907877E-1,4.6152765E-1,8.4116024E-1,1.0658454E0,1.4836437E0,1.3424342E0,1.7559737E0,2.2311997E0,2.4428338E-1,-7.407123E-1,-1.2261163E0,-3.433969E-1,-8.4007746E-1,-2.5214967E-1,2.124193E-1,-7.8654474E-1,-3.107168E-1,3.4704873E-1,-8.7965816E-2,7.2407025E-1,4.3505368E-1,-3.4095454E-1,-7.8372705E-1,5.53843E-1,1.5506743E0,2.9106835E-1,6.314576E-1,1.0611892E0,7.268375E-1,1.3843421E0,9.654569E-1,1.4434055E0,2.2471936E0,1.1970825E0,1.5114988E0,1.7052974E0,2.108936E0,2.0990427E0,1.9333039E-1,-7.010842E-2,-4.2460695E-2,-1.2542532E-1,-8.7815195E-2,-4.417399E-3,-3.7537012E-2,-5.8599424E-2,-8.198698E-2,3.2653308E-3,-3.7585795E-2,5.4504555E-2,1.1511369E-2,-9.791667E-2,-5.325192E-2,-1.3353107E-2,-3.8142107E-2,4.8692603E-2,2.000093E-2,-2.1222414E-2,4.5156353E-3,7.305694E-2,5.1697534E-2,1.7686546E-2,5.5480234E-2,-6.33652E-2,-1.4419226E-2,-7.019949E-2,-5.2247852E-2,6.361628E-2,1.2140973E-2,9.976464E-2,1.3271567E-1,3.94888E-2,1.2786912E-2,7.5023025E-2,3.944115E-2,9.719079E-2,7.207484E-2,3.8638838E-2,6.871792E-2,1.15130104E-1,6.0491752E-2,6.6419736E-2,9.081443E-2,1.3065296E-1,1.085317E-1,1.8426971E-1,6.891581E-2,1.12748064E-1,8.820401E-2,1.2858438E-1,9.828447E-2,1.5894477E-1,1.2991466E-1,1.6283467E-1,2.247579E-1,1.7805414E-1,1.4646602E-1],"categories":[],"categories_nodes":[],"categories_segments":[],"categories_sizes":[],"default_left":[0,0,0,0,0,0,0,0,0,0,0,0,0,0,0,0,0,0,0,0,0,0,0,0,0,0,0,0,0,0,0,0,0,0,0,0,0,0,0,0,0,0,0,0,0,0,0,0,0,0,0,0,0,0,0,0,0,0,0,0,0,0,0,0,0,0,0,0,0,0,0,0,0,0,0,0,0,0,0,0,0,0,0,0,0,0,0,0,0,0,0,0,0,0,0,0,0,0,0,0,0,0,0,0,0,0,0,0,0,0,0,0,0,0,0,0,0,0,0],"id":6,"left_children":[1,3,5,7,9,11,13,15,17,19,21,23,25,27,29,31,33,35,37,39,41,43,45,47,49,51,53,55,57,59,-1,61,63,65,67,69,71,73,75,77,79,81,83,85,87,89,91,93,95,97,99,101,103,105,107,109,111,113,115,117,-1,-1,-1,-1,-1,-1,-1,-1,-1,-1,-1,-1,-1,-1,-1,-1,-1,-1,-1,-1,-1,-1,-1,-1,-1,-1,-1,-1,-1,-1,-1,-1,-1,-1,-1,-1,-1,-1,-1,-1,-1,-1,-1,-1,-1,-1,-1,-1,-1,-1,-1,-1,-1,-1,-1,-1,-1,-1,-1],"loss_changes":[1.4398835E4,4.855403E3,1.9781768E3,1.1806514E3,1.344781E3,6.9380225E2,2.7649805E2,4.711167E2,4.132379E2,7.5445074E2,4.5626215E2,1.6373804E2,1.00831055E2,6.0861816E1,6.0496338E1,3.4487354E2,4.9817065E2,2.3718913E2,3.0622375E2,5.554091E2,8.51676E1,1.6320471E2,5.358725E1,1.0617987E2,4.0733276E1,8.19541E1,1.995288E1,1.200116E1,1.5953857E1,8.92041E0,0E0,9.636243E1,1.1158594E2,1.5374219E2,7.597583E1,1.8029915E2,5.76745E1,1.0595288E2,9.797113E1,1.3896173E2,1.618461E2,3.6295654E1,9.562781E1,1.7878687E2,1.48479E1,1.24953575E1,1.0541229E0,4.8695267E1,7.7486084E1,1.2747681E1,3.467462E1,2.0318237E1,4.4587036E1,9.637939E0,8.1829834E-1,4.6064453E0,4.964905E0,1.8785156E1,1.1298218E0,7.5074463E0,0E0,0E0,0E0,0E0,0E0,0E0,0E0,0E0,0E0,0E0,0E0,0E0,0E0,0E0,0E0,0E0,0E0,0E0,0E0,0E0,0E0,0E0,0E0,0E0,0E0,0E0,0E0,0E0,0E0,0E0,0E0,0E0,0E0,0E0,0E0,0E0,0E0,0E0,0E0,0E0,0E0,0E0,0E0,0E0,0E0,0E0,0E0,0E0,0E0,0E0,0E0,0E0,0E0,0E0,0E0,0E0,0E0,0E0,0E0],"parents":[2147483647,0,0,1,1,2,2,3,3,4,4,5,5,6,6,7,7,8,8,9,9,10,10,11,11,12,12,13,13,14,14,15,15,16,16,17,17,18,18,19,19,20,20,21,21,22,22,23,23,24,24,25,25,26,26,27,27,28,28,29,29,31,31,32,32,33,33,34,34,35,35,36,36,37,37,38,38,39,39,40,40,41,41,42,42,43,43,44,44,45,45,46,46,47,47,48,48,49,49,50,50,51,51,52,52,53,53,54,54,55,55,56,56,57,57,58,58,59,59],"right_children":[2,4,6,8,10,12,14,16,18,20,22,24,26,28,30,32,34,36,38,40,42,44,46,48,50,52,54,56,58,60,-1,62,64,66,68,70,72,74,76,78,80,82,84,86,88,90,92,94,96,98,100,102,104,106,108,110,112,114,116,118,-1,-1,-1,-1,-1,-1,-1,-1,-1,-1,-1,-1,-1,-1,-1,-1,-1,-1,-1,-1,-1,-1,-1,-1,-1,-1,-1,-1,-1,-1,-1,-1,-1,-1,-1,-1,-1,-1,-1,-1,-1,-1,-1,-1,-1,-1,-1,-1,-1,-1,-1,-1,-1,-1,-1,-1,-1,-1,-1],"split_conditions":[4E0,6.344E3,1.4E1,1E0,3.4E1,2.7071E4,3.6E1,2.09E3,7E0,2.1356E4,1.04248E5,7E0,1.10874E5,3.6631E4,1.21E2,8E0,1.2E1,2.397E3,2.759E3,1.2E1,1.8E1,1E0,1.6648E5,9.406E3,1E0,1E1,9.7E1,1.9E1,3.55881E5,2.35428E5,2.4428338E-1,9.7E2,9.28E2,7E0,1.9E1,2E0,3E0,1.307E3,1.2E1,7E0,1E0,1E1,4.1096E4,1.195E4,2.3947E4,1E0,8E1,4E0,8E0,3E0,9.878E3,8E0,7E0,1.6E1,1.37E2,1E0,4E0,8E0,8E1,9E0,1.9333039E-1,-7.010842E-2,-4.2460695E-2,-1.2542532E-1,-8.7815195E-2,-4.417399E-3,-3.7537012E-2,-5.8599424E-2,-8.198698E-2,3.2653308E-3,-3.7585795E-2,5.4504555E-2,1.1511369E-2,-9.791667E-2,-5.325192E-2,-1.3353107E-2,-3.8142107E-2,4.8692603E-2,2.000093E-2,-2.1222414E-2,4.5156353E-3,7.305694E-2,5.1697534E-2,1.7686546E-2,5.5480234E-2,-6.33652E-2,-1.4419226E-2,-7.019949E-2,-5.2247852E-2,6.361628E-2,1.2140973E-2,9.976464E-2,1.3271567E-1,3.94888E-2,1.2786912E-2,7.5023025E-2,3.944115E-2,9.719079E-2,7.207484E-2,3.8638838E-2,6.871792E-2,1.15130104E-1,6.0491752E-2,6.6419736E-2,9.081443E-2,1.3065296E-1,1.085317E-1,1.8426971E-1,6.891581E-2,1.12748064E-1,8.820401E-2,1.2858438E-1,9.828447E-2,1.5894477E-1,1.2991466E-1,1.6283467E-1,2.247579E-1,1.7805414E-1,1.4646602E-1],"split_indices":[2,4,2,2,3,4,2,4,3,4,4,2,4,4,2,3,3,4,4,3,3,10,4,4,5,3,3,2,4,4,0,4,4,3,3,3,3,4,3,3,2,3,4,4,4,11,3,3,3,3,4,5,2,3,0,5,5,3,3,5,0,0,0,0,0,0,0,0,0,0,0,0,0,0,0,0,0,0,0,0,0,0,0,0,0,0,0,0,0,0,0,0,0,0,0,0,0,0,0,0,0,0,0,0,0,0,0,0,0,0,0,0,0,0,0,0,0,0,0],"split_type":[0,0,0,0,0,0,0,0,0,0,0,0,0,0,0,0,0,0,0,0,0,0,0,0,0,0,0,0,0,0,0,0,0,0,0,0,0,0,0,0,0,0,0,0,0,0,0,0,0,0,0,0,0,0,0,0,0,0,0,0,0,0,0,0,0,0,0,0,0,0,0,0,0,0,0,0,0,0,0,0,0,0,0,0,0,0,0,0,0,0,0,0,0,0,0,0,0,0,0,0,0,0,0,0,0,0,0,0,0,0,0,0,0,0,0,0,0,0,0],"sum_hessian":[5.5824E4,4.4806E4,1.1018E4,2.4825E4,1.9981E4,8.678E3,2.34E3,1.4079E4,1.0746E4,1.6033E4,3.948E3,5.32E3,3.358E3,1.653E3,6.87E2,5.98E3,8.099E3,4.623E3,6.123E3,1.1798E4,4.235E3,3.725E3,2.23E2,3.671E3,1.649E3,2.604E3,7.54E2,5.61E2,1.092E3,5.7E2,1.17E2,3.399E3,2.581E3,4.24E3,3.859E3,2.826E3,1.797E3,2.018E3,4.105E3,5.479E3,6.319E3,2.504E3,1.731E3,2.467E3,1.258E3,1.29E2,9.4E1,1.834E3,1.837E3,5.61E2,1.088E3,6.21E2,1.983E3,7.19E2,3.5E1,3.06E2,2.55E2,9.6E2,1.32E2,3.4E2,2.3E2,2.063E3,1.336E3,7.02E2,1.879E3,1.289E3,2.951E3,2.442E3,1.417E3,1.205E3,1.621E3,2.28E2,1.569E3,4.35E2,1.583E3,2.201E3,1.904E3,1.481E3,3.998E3,2.836E3,3.483E3,7.27E2,1.777E3,9.48E2,7.83E2,6.47E2,1.82E3,7.29E2,5.29E2,8E1,4.9E1,2.8E1,6.6E1,7.2E2,1.114E3,5.7E2,1.267E3,2.83E2,2.78E2,3.84E2,7.04E2,5.7E2,5.1E1,1.107E3,8.76E2,2.2E2,4.99E2,3.3E1,2E0,9E1,2.16E2,1.87E2,6.8E1,2.1E2,7.5E2,1.23E2,9E0,2.26E2,1.14E2],"tree_param":{"num_deleted":"0","num_feature":"22","num_nodes":"119","size_leaf_vector":"1"}},{"base_weights":[2.7562137E-4,-3.7205467E-1,5.960283E-1,-6.891967E-1,-1.300207E-1,3.5101694E-1,1.2836922E0,-5.2114314E-1,-8.8182384E-1,6.0627975E-2,-3.6067396E-1,8.5837364E-2,5.9976035E-1,1.058264E0,1.8891057E0,-7.1767354E-1,-3.1962174E-1,-1.2659246E0,-7.753364E-1,-1.378746E-1,3.2285237E-1,-5.7191926E-1,-1.04332566E-1,2.7151254E-1,-3.8842034E-2,5.326738E-1,1.028147E0,7.7845055E-1,1.242647E0,1.705404E0,2.3546472E0,-4.5494583E-1,-9.774461E-1,2.8128006E-2,-4.358632E-1,-1.2336525E0,-2.0772073E0,-7.1510804E-1,-1.064234E0,2.1849556E-1,-2.3574464E-1,1.8623137E-1,5.044577E-1,-4.8058107E-1,-8.058379E-1,1.0621405E-1,-5.534829E-1,7.187757E-2,5.118233E-1,-4.035536E-1,8.533325E-2,5.7509923E-1,-4.463672E-1,9.018757E-1,1.3609084E0,9.7955114E-1,6.372481E-1,1.08189E0,1.3878324E0,1.6238382E0,1.9955622E0,2.207723E0,2.9422975E0,-4.5379117E-2,3.9942213E-3,-1.2567306E-1,-6.723179E-2,2.8298432E-2,-8.675226E-3,-4.2519987E-2,-2.2463126E-2,-1.386398E-1,-9.4442375E-2,-2.0502175E-1,-9.167169E-2,-7.143353E-2,-5.0780255E-2,-8.121208E-2,-1.3473843E-1,-4.7602363E-2,2.037208E-2,-2.84212E-2,-1.2115911E-2,2.9134227E-2,1.2669449E-3,5.3385615E-2,3.3900287E-2,-5.3128347E-2,-2.6690228E-2,-6.167337E-2,-1.347427E-1,-1.0416782E-2,2.0700041E-2,-5.115337E-2,6.770907E-2,3.8712353E-2,-6.09314E-3,5.955059E-2,2.7349906E-2,-7.100737E-2,-2.6968969E-2,1.7229E-2,-1.594487E-3,6.638129E-2,3.7449263E-2,4.0594737E-6,-4.975781E-2,7.848024E-2,2.464739E-2,9.902271E-2,1.4947294E-1,6.494129E-2,1.0067277E-1,3.0931579E-2,6.0847238E-2,1.1206557E-1,7.621857E-2,1.0544806E-1,1.2319801E-1,1.01815306E-1,1.3378549E-1,1.5996295E-1,4.230198E-2,1.3940148E-1,1.7882267E-1,1.5270872E-1,2.4098928E-1],"categories":[],"categories_nodes":[],"categories_segments":[],"categories_sizes":[],"default_left":[0,0,0,0,0,0,0,0,0,0,0,0,0,0,0,0,0,0,0,0,0,0,0,0,0,0,0,0,0,0,0,0,0,0,0,0,0,0,0,0,0,0,0,0,0,0,0,0,0,0,0,0,0,0,0,0,0,0,0,0,0,0,0,0,0,0,0,0,0,0,0,0,0,0,0,0,0,0,0,0,0,0,0,0,0,0,0,0,0,0,0,0,0,0,0,0,0,0,0,0,0,0,0,0,0,0,0,0,0,0,0,0,0,0,0,0,0,0,0,0,0,0,0,0,0,0,0],"id":7,"left_children":[1,3,5,7,9,11,13,15,17,19,21,23,25,27,29,31,33,35,37,39,41,43,45,47,49,51,53,55,57,59,61,63,65,67,69,71,73,75,77,79,81,83,85,87,89,91,93,95,97,99,101,103,105,107,109,111,113,115,117,119,121,123,125,-1,-1,-1,-1,-1,-1,-1,-1,-1,-1,-1,-1,-1,-1,-1,-1,-1,-1,-1,-1,-1,-1,-1,-1,-1,-1,-1,-1,-1,-1,-1,-1,-1,-1,-1,-1,-1,-1,-1,-1,-1,-1,-1,-1,-1,-1,-1,-1,-1,-1,-1,-1,-1,-1,-1,-1,-1,-1,-1,-1,-1,-1,-1,-1],"loss_changes":[1.2383145E4,2.6369712E3,3.6171006E3,4.8090674E2,8.5689417E2,1.044254E3,7.677334E2,3.143933E2,2.823462E2,5.5538965E2,4.774431E2,1.7743115E2,2.3422119E2,2.1118213E2,1.26745605E2,2.7398633E2,1.5863184E2,3.676245E1,9.365039E1,2.1186534E2,1.1396265E2,1.0289453E2,3.7690857E2,1.4767648E2,2.0772595E2,2.937107E2,4.520276E1,4.5831482E1,5.631079E1,2.2793213E1,3.0630615E1,1.1347272E2,1.6305579E2,4.379386E1,4.346808E1,3.6338135E1,2.2387177E1,6.3628906E1,2.6713135E1,3.86536E1,4.7953888E1,7.9587135E1,2.5649689E1,9.360474E1,4.0298218E1,9.790938E1,1.5355606E2,1.0269516E2,5.4959564E1,3.7167465E1,4.6842724E1,1.8411572E2,2.3047695E1,3.7473328E1,1.6558105E1,3.0466919E1,2.9503174E1,4.7272217E1,1.1740723E1,1.2580078E1,3.244629E-1,5.6689453E-1,2.6000977E-1,0E0,0E0,0E0,0E0,0E0,0E0,0E0,0E0,0E0,0E0,0E0,0E0,0E0,0E0,0E0,0E0,0E0,0E0,0E0,0E0,0E0,0E0,0E0,0E0,0E0,0E0,0E0,0E0,0E0,0E0,0E0,0E0,0E0,0E0,0E0,0E0,0E0,0E0,0E0,0E0,0E0,0E0,0E0,0E0,0E0,0E0,0E0,0E0,0E0,0E0,0E0,0E0,0E0,0E0,0E0,0E0,0E0,0E0,0E0,0E0,0E0,0E0,0E0,0E0],"parents":[2147483647,0,0,1,1,2,2,3,3,4,4,5,5,6,6,7,7,8,8,9,9,10,10,11,11,12,12,13,13,14,14,15,15,16,16,17,17,18,18,19,19,20,20,21,21,22,22,23,23,24,24,25,25,26,26,27,27,28,28,29,29,30,30,31,31,32,32,33,33,34,34,35,35,36,36,37,37,38,38,39,39,40,40,41,41,42,42,43,43,44,44,45,45,46,46,47,47,48,48,49,49,50,50,51,51,52,52,53,53,54,54,55,55,56,56,57,57,58,58,59,59,60,60,61,61,62,62],"right_children":[2,4,6,8,10,12,14,16,18,20,22,24,26,28,30,32,34,36,38,40,42,44,46,48,50,52,54,56,58,60,62,64,66,68,70,72,74,76,78,80,82,84,86,88,90,92,94,96,98,100,102,104,106,108,110,112,114,116,118,120,122,124,126,-1,-1,-1,-1,-1,-1,-1,-1,-1,-1,-1,-1,-1,-1,-1,-1,-1,-1,-1,-1,-1,-1,-1,-1,-1,-1,-1,-1,-1,-1,-1,-1,-1,-1,-1,-1,-1,-1,-1,-1,-1,-1,-1,-1,-1,-1,-1,-1,-1,-1,-1,-1,-1,-1,-1,-1,-1,-1,-1,-1,-1,-1,-1,-1],"split_conditions":[2E0,3.803E3,7E0,9E0,1.6E1,1.0502E4,2E1,1.307E3,1.525E3,8.449E3,1.5747E4,6E0,7.2962E4,2.1356E4,5.1E1,3E0,5E0,3.3E1,1.9E1,7E0,1.4379E4,3.4E1,8.5E1,2.68E3,3.643E3,7.2E1,1.6648E5,4E0,5.9807E4,2.35428E5,1.5E2,5.81E2,4.6E2,3E0,2.597E3,5.22E2,4.3E1,2.215E3,4.9E1,1E0,5.19E3,1.1E1,1E1,6.516E3,1E0,2.2423E4,1.04248E5,0E0,4E0,1.307E3,1E1,1E1,3E0,5.3E1,8.7E1,5.19E3,9.878E3,8E0,1.6648E5,1.3669E4,1E0,3.0188E4,9.3118E4,-4.5379117E-2,3.9942213E-3,-1.2567306E-1,-6.723179E-2,2.8298432E-2,-8.675226E-3,-4.2519987E-2,-2.2463126E-2,-1.386398E-1,-9.4442375E-2,-2.0502175E-1,-9.167169E-2,-7.143353E-2,-5.0780255E-2,-8.121208E-2,-1.3473843E-1,-4.7602363E-2,2.037208E-2,-2.84212E-2,-1.2115911E-2,2.9134227E-2,1.2669449E-3,5.3385615E-2,3.3900287E-2,-5.3128347E-2,-2.6690228E-2,-6.167337E-2,-1.347427E-1,-1.0416782E-2,2.0700041E-2,-5.115337E-2,6.770907E-2,3.8712353E-2,-6.09314E-3,5.955059E-2,2.7349906E-2,-7.100737E-2,-2.6968969E-2,1.7229E-2,-1.594487E-3,6.638129E-2,3.7449263E-2,4.0594737E-6,-4.975781E-2,7.848024E-2,2.464739E-2,9.902271E-2,1.4947294E-1,6.494129E-2,1.0067277E-1,3.0931579E-2,6.0847238E-2,1.1206557E-1,7.621857E-2,1.0544806E-1,1.2319801E-1,1.01815306E-1,1.3378549E-1,1.5996295E-1,4.230198E-2,1.3940148E-1,1.7882267E-1,1.5270872E-1,2.4098928E-1],"split_indices":[2,4,2,3,3,4,2,4,4,4,4,3,4,4,2,3,3,3,3,3,4,3,3,4,4,3,4,3,4,4,2,4,4,3,4,4,3,4,3,3,4,3,3,4,20,4,4,3,3,4,3,3,5,3,3,4,4,3,4,4,19,4,4,0,0,0,0,0,0,0,0,0,0,0,0,0,0,0,0,0,0,0,0,0,0,0,0,0,0,0,0,0,0,0,0,0,0,0,0,0,0,0,0,0,0,0,0,0,0,0,0,0,0,0,0,0,0,0,0,0,0,0,0,0,0,0,0],"split_type":[0,0,0,0,0,0,0,0,0,0,0,0,0,0,0,0,0,0,0,0,0,0,0,0,0,0,0,0,0,0,0,0,0,0,0,0,0,0,0,0,0,0,0,0,0,0,0,0,0,0,0,0,0,0,0,0,0,0,0,0,0,0,0,0,0,0,0,0,0,0,0,0,0,0,0,0,0,0,0,0,0,0,0,0,0,0,0,0,0,0,0,0,0,0,0,0,0,0,0,0,0,0,0,0,0,0,0,0,0,0,0,0,0,0,0,0,0,0,0,0,0,0,0,0,0,0,0],"sum_hessian":[5.5824E4,3.4354E4,2.147E4,1.4869E4,1.9485E4,1.5831E4,5.639E3,7.943E3,6.926E3,1.0668E4,8.817E3,7.663E3,8.168E3,4.111E3,1.528E3,4.02E3,3.923E3,1.501E3,5.425E3,6.072E3,4.596E3,4.833E3,3.984E3,3.078E3,4.585E3,7.064E3,1.104E3,1.635E3,2.476E3,1.099E3,4.29E2,2E3,2.02E3,9.83E2,2.94E3,1.446E3,5.5E1,4.492E3,9.33E2,1.308E3,4.764E3,2.624E3,1.972E3,3.478E3,1.355E3,2.713E3,1.271E3,1.682E3,1.396E3,1.164E3,3.421E3,6.771E3,2.93E2,8.03E2,3.01E2,6.72E2,9.63E2,1.179E3,1.297E3,8.63E2,2.36E2,3.47E2,8.2E1,1.636E3,3.64E2,3.77E2,1.643E3,2.9E2,6.93E2,1.817E3,1.123E3,1.36E2,1.31E3,3.5E1,2E1,1.395E3,3.097E3,8.67E2,6.6E1,5.5E1,1.253E3,1.969E3,2.795E3,1.283E3,1.341E3,6.51E2,1.321E3,1.545E3,1.933E3,1.305E3,5E1,1.064E3,1.649E3,1.198E3,7.3E1,4.44E2,1.238E3,5.88E2,8.08E2,1.39E2,1.025E3,1.53E3,1.891E3,2.001E3,4.77E3,8.3E1,2.1E2,7.08E2,9.5E1,2.45E2,5.6E1,4.22E2,2.5E2,3.19E2,6.44E2,3.37E2,8.42E2,8.96E2,4.01E2,1.08E2,7.55E2,2.35E2,1E0,2.3E1,3.24E2,7E0,7.5E1],"tree_param":{"num_deleted":"0","num_feature":"22","num_nodes":"127","size_leaf_vector":"1"}},{"base_weights":[2.7002872E-4,-3.423295E-1,5.484516E-1,-6.4026064E-1,-1.239396E-1,3.47231E-1,1.259984E0,-4.318195E-1,-7.7804404E-1,4.6998464E-2,-3.35064E-1,8.2403846E-2,5.678775E-1,1.0311972E0,1.7387294E0,-6.415626E-1,-2.1634181E-1,-1.1582178E0,-6.8156815E-1,-1.4738812E-1,2.8063574E-1,-5.69119E-1,-1.3458522E-1,2.5729835E-1,-4.4727877E-2,5.0229657E-1,9.7677475E-1,8.9044684E-1,1.299361E0,1.6051033E0,2.2899318E0,-4.1006717E-1,-9.003803E-1,3.2761657E-1,-3.038179E-1,-1.75091E0,-1.0912219E0,-5.687175E-1,-8.5438573E-1,1.24695115E-1,-2.6520774E-1,1.6001491E-1,4.6414527E-1,-4.975987E-1,-8.5302866E-1,2.3757068E-2,-6.180933E-1,5.813149E-2,4.4970503E-1,-4.1189265E-1,5.9425656E-2,5.375435E-1,-3.983691E-1,8.6275136E-1,1.2597533E0,7.8255844E-1,1.0282941E0,1.4192115E0,1.2098322E0,1.4819204E0,1.7736368E0,2.1418116E0,2.8254468E0,-6.86925E-2,-2.6010096E-2,-1.14221446E-1,-6.087801E-2,-5.0143473E-2,3.7641607E-2,-3.8044613E-2,-1.6072903E-2,-1.9446522E-1,-1.3235003E-1,-8.006479E-2,-1.1031563E-1,-5.61055E-2,-3.7082467E-2,-6.6935875E-2,-1.2412022E-1,-4.721456E-2,1.2033459E-2,-2.8360745E-2,-1.4933868E-2,3.765217E-2,6.017276E-3,6.864125E-2,3.481672E-2,-4.805417E-2,-2.8487466E-2,-6.445888E-2,-1.2417465E-1,1.0890468E-2,-1.9066542E-2,-3.1695195E-2,-5.752737E-2,3.7621014E-2,-9.535202E-3,6.2265415E-2,2.6466526E-2,-5.9033915E-2,-2.6135474E-2,1.369742E-2,-3.1106882E-3,5.831282E-2,3.335013E-2,1.2567609E-3,-4.515722E-2,7.469383E-2,2.3788096E-2,9.2643484E-2,1.3992007E-1,9.453522E-2,5.731026E-2,1.252541E-1,7.68746E-2,1.287025E-1,1.0385579E-1,8.80169E-2,1.2074465E-1,1.0741283E-1,1.3114503E-1,1.3320507E-1,1.517102E-1,1.71674E-1,4.70063E-2,1.4606366E-1,2.336976E-1],"categories":[],"categories_nodes":[],"categories_segments":[],"categories_sizes":[],"default_left":[0,0,0,0,0,0,0,0,0,0,0,0,0,0,0,0,0,0,0,0,0,0,0,0,0,0,0,0,0,0,0,0,0,0,0,0,0,0,0,0,0,0,0,0,0,0,0,0,0,0,0,0,0,0,0,0,0,0,0,0,0,0,0,0,0,0,0,0,0,0,0,0,0,0,0,0,0,0,0,0,0,0,0,0,0,0,0,0,0,0,0,0,0,0,0,0,0,0,0,0,0,0,0,0,0,0,0,0,0,0,0,0,0,0,0,0,0,0,0,0,0,0,0,0,0,0,0],"id":8,"left_children":[1,3,5,7,9,11,13,15,17,19,21,23,25,27,29,31,33,35,37,39,41,43,45,47,49,51,53,55,57,59,61,63,65,67,69,71,73,75,77,79,81,83,85,87,89,91,93,95,97,99,101,103,105,107,109,111,113,115,117,119,121,123,125,-1,-1,-1,-1,-1,-1,-1,-1,-1,-1,-1,-1,-1,-1,-1,-1,-1,-1,-1,-1,-1,-1,-1,-1,-1,-1,-1,-1,-1,-1,-1,-1,-1,-1,-1,-1,-1,-1,-1,-1,-1,-1,-1,-1,-1,-1,-1,-1,-1,-1,-1,-1,-1,-1,-1,-1,-1,-1,-1,-1,-1,-1,-1,-1],"loss_changes":[1.04845E4,2.2352336E3,3.0736719E3,4.1699023E2,7.15484E2,9.780659E2,5.166157E2,2.613141E2,3.200293E2,4.9761856E2,4.1613092E2,1.6919487E2,2.4436499E2,1.1981299E2,1.0894287E2,1.7524194E2,1.3595001E2,6.833301E1,1.356228E2,1.9176445E2,1.10069855E2,8.2664795E1,3.6589386E2,1.2271614E2,1.685548E2,2.5008447E2,3.9600708E1,3.0501099E1,1.0096802E1,2.2990234E1,1.7427368E1,5.8743286E1,1.0059241E2,5.4304783E1,4.3380417E1,7.661438E0,4.003369E1,5.8604736E1,3.2671265E1,3.3335854E1,2.9207123E1,7.9095085E1,2.211316E1,4.7497437E1,2.592871E1,1.06088806E2,2.6138824E1,1.15156624E2,6.3376648E1,2.6814331E1,3.7746994E1,1.7461523E2,2.0435604E1,3.5891724E1,1.588855E1,3.0454773E1,3.1834717E1,8.578857E0,1.9251343E1,1.355835E1,3.718628E0,2.479248E-1,5.065613E-1,0E0,0E0,0E0,0E0,0E0,0E0,0E0,0E0,0E0,0E0,0E0,0E0,0E0,0E0,0E0,0E0,0E0,0E0,0E0,0E0,0E0,0E0,0E0,0E0,0E0,0E0,0E0,0E0,0E0,0E0,0E0,0E0,0E0,0E0,0E0,0E0,0E0,0E0,0E0,0E0,0E0,0E0,0E0,0E0,0E0,0E0,0E0,0E0,0E0,0E0,0E0,0E0,0E0,0E0,0E0,0E0,0E0,0E0,0E0,0E0,0E0,0E0,0E0,0E0],"parents":[2147483647,0,0,1,1,2,2,3,3,4,4,5,5,6,6,7,7,8,8,9,9,10,10,11,11,12,12,13,13,14,14,15,15,16,16,17,17,18,18,19,19,20,20,21,21,22,22,23,23,24,24,25,25,26,26,27,27,28,28,29,29,30,30,31,31,32,32,33,33,34,34,35,35,36,36,37,37,38,38,39,39,40,40,41,41,42,42,43,43,44,44,45,45,46,46,47,47,48,48,49,49,50,50,51,51,52,52,53,53,54,54,55,55,56,56,57,57,58,58,59,59,60,60,61,61,62,62],"right_children":[2,4,6,8,10,12,14,16,18,20,22,24,26,28,30,32,34,36,38,40,42,44,46,48,50,52,54,56,58,60,62,64,66,68,70,72,74,76,78,80,82,84,86,88,90,92,94,96,98,100,102,104,106,108,110,112,114,116,118,120,122,124,126,-1,-1,-1,-1,-1,-1,-1,-1,-1,-1,-1,-1,-1,-1,-1,-1,-1,-1,-1,-1,-1,-1,-1,-1,-1,-1,-1,-1,-1,-1,-1,-1,-1,-1,-1,-1,-1,-1,-1,-1,-1,-1,-1,-1,-1,-1,-1,-1,-1,-1,-1,-1,-1,-1,-1,-1,-1,-1,-1,-1,-1,-1,-1,-1],"split_conditions":[2E0,3.704E3,8E0,7E0,1.6E1,9.878E3,2E1,9.7E2,1.348E3,7.929E3,1.2491E4,6E0,7.2962E4,5.9807E4,6.7E1,2E0,3E0,4.6E2,1.3E1,8E0,1.4379E4,3.8E1,1E0,2.215E3,3.255E3,7.2E1,1.6648E5,2.1356E4,5E0,1.2827E5,1.84E2,1.47494E5,3.5E2,1E0,1.734E3,1.81E2,1.5E1,2.306E3,4.9E1,1E0,5.19E3,8E0,6E0,7.36E3,1E0,5E1,4.9E1,0E0,3E0,1.606E3,1E1,1.1E1,3E0,5.3E1,8.7E1,1E0,5E0,1.3E1,2.35428E5,2.8E1,3.4E1,1E0,9.7866E4,-6.86925E-2,-2.6010096E-2,-1.14221446E-1,-6.087801E-2,-5.0143473E-2,3.7641607E-2,-3.8044613E-2,-1.6072903E-2,-1.9446522E-1,-1.3235003E-1,-8.006479E-2,-1.1031563E-1,-5.61055E-2,-3.7082467E-2,-6.6935875E-2,-1.2412022E-1,-4.721456E-2,1.2033459E-2,-2.8360745E-2,-1.4933868E-2,3.765217E-2,6.017276E-3,6.864125E-2,3.481672E-2,-4.805417E-2,-2.8487466E-2,-6.445888E-2,-1.2417465E-1,1.0890468E-2,-1.9066542E-2,-3.1695195E-2,-5.752737E-2,3.7621014E-2,-9.535202E-3,6.2265415E-2,2.6466526E-2,-5.9033915E-2,-2.6135474E-2,1.369742E-2,-3.1106882E-3,5.831282E-2,3.335013E-2,1.2567609E-3,-4.515722E-2,7.469383E-2,2.3788096E-2,9.2643484E-2,1.3992007E-1,9.453522E-2,5.731026E-2,1.252541E-1,7.68746E-2,1.287025E-1,1.0385579E-1,8.80169E-2,1.2074465E-1,1.0741283E-1,1.3114503E-1,1.3320507E-1,1.517102E-1,1.71674E-1,4.70063E-2,1.4606366E-1,2.336976E-1],"split_indices":[2,4,2,3,3,4,2,4,4,4,4,3,4,4,2,3,3,4,3,3,4,3,10,4,4,3,4,4,5,4,2,1,4,3,4,4,3,4,3,3,4,3,3,4,20,3,3,3,3,4,3,3,5,3,3,3,3,3,4,2,2,7,4,0,0,0,0,0,0,0,0,0,0,0,0,0,0,0,0,0,0,0,0,0,0,0,0,0,0,0,0,0,0,0,0,0,0,0,0,0,0,0,0,0,0,0,0,0,0,0,0,0,0,0,0,0,0,0,0,0,0,0,0,0,0,0,0],"split_type":[0,0,0,0,0,0,0,0,0,0,0,0,0,0,0,0,0,0,0,0,0,0,0,0,0,0,0,0,0,0,0,0,0,0,0,0,0,0,0,0,0,0,0,0,0,0,0,0,0,0,0,0,0,0,0,0,0,0,0,0,0,0,0,0,0,0,0,0,0,0,0,0,0,0,0,0,0,0,0,0,0,0,0,0,0,0,0,0,0,0,0,0,0,0,0,0,0,0,0,0,0,0,0,0,0,0,0,0,0,0,0,0,0,0,0,0,0,0,0,0,0,0,0,0,0,0,0],"sum_hessian":[5.5824E4,3.4354E4,2.147E4,1.453E4,1.9824E4,1.6738E4,4.732E3,5.784E3,8.746E3,1.0955E4,8.869E3,7.608E3,9.13E3,3.204E3,1.528E3,2.93E3,2.854E3,1.768E3,6.978E3,5.98E3,4.975E3,4.091E3,4.778E3,3.202E3,4.406E3,7.87E3,1.26E3,2.104E3,1.1E3,1.233E3,2.95E2,1.548E3,1.382E3,3.95E2,2.459E3,1.77E2,1.591E3,4.224E3,2.754E3,1.807E3,4.173E3,3.003E3,1.972E3,3.27E3,8.21E2,3.6E3,1.178E3,1.574E3,1.628E3,9.73E2,3.433E3,7.574E3,2.96E2,9.01E2,3.59E2,1.184E3,9.2E2,4.64E2,6.36E2,7.18E2,5.15E2,2.35E2,6E1,2.45E2,1.303E3,2.87E2,1.095E3,5.1E1,3.44E2,9.2E2,1.539E3,1.9E1,1.58E2,1.214E3,3.77E2,1.866E3,2.358E3,2.688E3,6.6E1,6.2E1,1.745E3,1.951E3,2.222E3,6.43E2,2.36E3,1.33E2,1.839E3,1.89E3,1.38E3,7.71E2,5E1,2.52E3,1.08E3,3.7E2,8.08E2,4.73E2,1.101E3,4.31E2,1.197E3,2E2,7.73E2,1.606E3,1.827E3,2.927E3,4.647E3,8.5E1,2.11E2,8E2,1.01E2,3E2,5.9E1,1.66E2,1.018E3,1E2,8.2E2,1.76E2,2.88E2,4.69E2,1.67E2,3.86E2,3.32E2,2.81E2,2.34E2,2.34E2,1E0,7E0,5.3E1],"tree_param":{"num_deleted":"0","num_feature":"22","num_nodes":"127","size_leaf_vector":"1"}},{"base_weights":[2.647063E-4,-1.979087E-1,8.0610514E-1,-4.2873907E-1,8.888908E-2,6.3459843E-1,1.4416028E0,-5.8294314E-1,-2.2667132E-1,1.9006239E-1,-3.2192427E-1,4.5414093E-1,9.202727E-1,1.2585002E0,1.839186E0,-7.0753527E-1,-4.0666702E-1,-1.4390792E-2,-3.3904776E-1,8.591397E-2,4.912125E-1,-3.8933542E-1,8.008255E-1,3.3092424E-1,5.985049E-1,8.490744E-1,1.1647115E0,1.0413429E0,1.3728142E0,1.7275139E0,2.3924985E0,-5.573616E-1,-8.9758563E-1,-1.6112171E-1,-5.8319795E-1,-2.2758943E-1,1.5155043E-1,-8.6763144E-1,-2.769756E-1,2.7460527E-1,-7.711246E-2,3.934931E-1,6.2788147E-1,-2.7079132E-1,-6.2140656E-1,4.667087E-1,1.3118843E0,9.544104E-2,4.048865E-1,7.046242E-1,4.5162347E-1,9.561241E-1,6.3449126E-1,1.8007367E0,1.1266111E0,1.1179398E0,8.3314073E-1,1.6290654E0,1.3120238E0,1.6230826E0,1.8779875E0,1.3673857E-1,2.4589171E0,-5.945167E-2,-3.4137275E-2,-9.6768685E-2,-6.485121E-2,8.783809E-3,-1.8833054E-2,-3.6684304E-2,-5.492322E-2,1.636663E-2,-3.848932E-2,3.6342878E-2,3.929853E-3,-1.2500748E-1,-6.2078476E-2,-1.2486573E-2,-3.288949E-2,3.9187174E-2,1.559135E-2,-1.7892322E-2,3.3082184E-3,4.9522117E-2,2.0228695E-2,5.270129E-2,-2.331467E-3,-4.9485978E-2,-1.1750755E-2,-5.6202624E-2,-4.067953E-2,5.3931832E-2,7.3825237E-3,1.11341275E-1,8.327011E-2,3.130889E-2,-9.084054E-3,6.415189E-2,2.6929807E-2,4.613585E-2,6.884159E-2,2.732958E-2,5.0560884E-2,8.7050356E-2,6.50957E-2,4.186403E-2,6.373056E-2,1.6007589E-1,1.0173506E-1,1.03926085E-1,8.394828E-2,7.157188E-2,1.01795785E-1,2.3347914E-2,6.886413E-2,1.471456E-1,1.1146768E-1,9.954801E-2,1.2908067E-1,1.428014E-1,1.17025204E-1,1.7941962E-1,1.4582212E-1,1.7617542E-1,2.1398881E-1],"categories":[],"categories_nodes":[],"categories_segments":[],"categories_sizes":[],"default_left":[0,0,0,0,0,0,0,0,0,0,0,0,0,0,0,0,0,0,0,0,0,0,0,0,0,0,0,0,0,0,0,0,0,0,0,0,0,0,0,0,0,0,0,0,0,0,0,0,0,0,0,0,0,0,0,0,0,0,0,0,0,0,0,0,0,0,0,0,0,0,0,0,0,0,0,0,0,0,0,0,0,0,0,0,0,0,0,0,0,0,0,0,0,0,0,0,0,0,0,0,0,0,0,0,0,0,0,0,0,0,0,0,0,0,0,0,0,0,0,0,0,0,0,0,0],"id":9,"left_children":[1,3,5,7,9,11,13,15,17,19,21,23,25,27,29,31,33,35,37,39,41,43,45,47,49,51,53,55,57,59,61,63,65,67,69,71,73,75,77,79,81,83,85,87,89,91,93,95,97,99,101,103,105,107,109,111,113,115,117,119,121,-1,123,-1,-1,-1,-1,-1,-1,-1,-1,-1,-1,-1,-1,-1,-1,-1,-1,-1,-1,-1,-1,-1,-1,-1,-1,-1,-1,-1,-1,-1,-1,-1,-1,-1,-1,-1,-1,-1,-1,-1,-1,-1,-1,-1,-1,-1,-1,-1,-1,-1,-1,-1,-1,-1,-1,-1,-1,-1,-1,-1,-1,-1,-1],"loss_changes":[8.915196E3,2.966335E3,1.2000693E3,7.73438E2,8.305801E2,4.470027E2,1.6810645E2,3.089458E2,2.5636835E2,5.0285303E2,2.9919525E2,9.445215E1,5.7469727E1,3.843799E1,4.1343994E1,2.3490234E2,2.5274536E2,1.3167767E2,2.3031781E2,3.6654645E2,5.477643E1,1.0233649E2,3.763646E1,5.000006E1,3.7854248E1,5.9233032E1,1.6266968E1,7.967407E0,1.4203491E1,6.631714E0,1.2883301E0,1.11576294E2,9.774194E1,4.9155834E1,4.339038E1,1.7858371E2,6.487822E1,4.5793335E1,1.0194083E2,9.4662994E1,1.1099221E2,7.6124664E1,3.484021E1,1.0626207E2,1.1175415E1,1.0578693E1,4.564209E-1,4.2593693E1,5.8974182E1,2.7822998E1,2.0222702E1,3.1753662E1,1.5267944E1,1.7982025E0,8.163635E0,1.2834137E1,2.0545425E0,7.2006836E0,1.539563E1,7.017395E0,8.6608887E-1,0E0,9.667969E-2,0E0,0E0,0E0,0E0,0E0,0E0,0E0,0E0,0E0,0E0,0E0,0E0,0E0,0E0,0E0,0E0,0E0,0E0,0E0,0E0,0E0,0E0,0E0,0E0,0E0,0E0,0E0,0E0,0E0,0E0,0E0,0E0,0E0,0E0,0E0,0E0,0E0,0E0,0E0,0E0,0E0,0E0,0E0,0E0,0E0,0E0,0E0,0E0,0E0,0E0,0E0,0E0,0E0,0E0,0E0,0E0,0E0,0E0,0E0,0E0,0E0,0E0],"parents":[2147483647,0,0,1,1,2,2,3,3,4,4,5,5,6,6,7,7,8,8,9,9,10,10,11,11,12,12,13,13,14,14,15,15,16,16,17,17,18,18,19,19,20,20,21,21,22,22,23,23,24,24,25,25,26,26,27,27,28,28,29,29,30,30,31,31,32,32,33,33,34,34,35,35,36,36,37,37,38,38,39,39,40,40,41,41,42,42,43,43,44,44,45,45,46,46,47,47,48,48,49,49,50,50,51,51,52,52,53,53,54,54,55,55,56,56,57,57,58,58,59,59,60,60,62,62],"right_children":[2,4,6,8,10,12,14,16,18,20,22,24,26,28,30,32,34,36,38,40,42,44,46,48,50,52,54,56,58,60,62,64,66,68,70,72,74,76,78,80,82,84,86,88,90,92,94,96,98,100,102,104,106,108,110,112,114,116,118,120,122,-1,124,-1,-1,-1,-1,-1,-1,-1,-1,-1,-1,-1,-1,-1,-1,-1,-1,-1,-1,-1,-1,-1,-1,-1,-1,-1,-1,-1,-1,-1,-1,-1,-1,-1,-1,-1,-1,-1,-1,-1,-1,-1,-1,-1,-1,-1,-1,-1,-1,-1,-1,-1,-1,-1,-1,-1,-1,-1,-1,-1,-1,-1,-1],"split_conditions":[4E0,6.344E3,1.4E1,1E0,3.4E1,2.7071E4,3.4E1,2.894E3,6E0,2.1648E4,1.04248E5,6E0,1.10874E5,3.7487E4,1.19E2,9E0,1.1E1,1.168E3,1.525E3,1.2E1,3.8602E4,1E0,2.35428E5,4.193E3,2E0,1.7E1,4E1,4E0,3E0,2.35428E5,6.9609E4,8.08E2,1.168E3,6E0,1.5E1,0E0,3E0,4.6E2,1.1E1,7E0,1E0,1.3E1,1E0,1.195E4,2.3947E4,1E0,3E0,2E0,5E0,9.285E3,1.6972E4,3E0,7E0,2.56049E5,1.6E1,1.0016E4,7.49E3,1.1E1,2.97933E5,6E0,7.7E1,1.3673857E-1,1.9E2,-5.945167E-2,-3.4137275E-2,-9.6768685E-2,-6.485121E-2,8.783809E-3,-1.8833054E-2,-3.6684304E-2,-5.492322E-2,1.636663E-2,-3.848932E-2,3.6342878E-2,3.929853E-3,-1.2500748E-1,-6.2078476E-2,-1.2486573E-2,-3.288949E-2,3.9187174E-2,1.559135E-2,-1.7892322E-2,3.3082184E-3,4.9522117E-2,2.0228695E-2,5.270129E-2,-2.331467E-3,-4.9485978E-2,-1.1750755E-2,-5.6202624E-2,-4.067953E-2,5.3931832E-2,7.3825237E-3,1.11341275E-1,8.327011E-2,3.130889E-2,-9.084054E-3,6.415189E-2,2.6929807E-2,4.613585E-2,6.884159E-2,2.732958E-2,5.0560884E-2,8.7050356E-2,6.50957E-2,4.186403E-2,6.373056E-2,1.6007589E-1,1.0173506E-1,1.03926085E-1,8.394828E-2,7.157188E-2,1.01795785E-1,2.3347914E-2,6.886413E-2,1.471456E-1,1.1146768E-1,9.954801E-2,1.2908067E-1,1.428014E-1,1.17025204E-1,1.7941962E-1,1.4582212E-1,1.7617542E-1,2.1398881E-1],"split_indices":[2,4,2,2,3,4,2,4,3,4,4,2,4,4,2,3,3,4,4,3,4,10,4,4,5,3,0,5,5,4,4,4,4,3,3,3,3,4,3,3,2,3,10,4,4,11,2,3,3,4,4,5,2,1,3,4,4,3,4,5,0,0,2,0,0,0,0,0,0,0,0,0,0,0,0,0,0,0,0,0,0,0,0,0,0,0,0,0,0,0,0,0,0,0,0,0,0,0,0,0,0,0,0,0,0,0,0,0,0,0,0,0,0,0,0,0,0,0,0,0,0,0,0,0,0],"split_type":[0,0,0,0,0,0,0,0,0,0,0,0,0,0,0,0,0,0,0,0,0,0,0,0,0,0,0,0,0,0,0,0,0,0,0,0,0,0,0,0,0,0,0,0,0,0,0,0,0,0,0,0,0,0,0,0,0,0,0,0,0,0,0,0,0,0,0,0,0,0,0,0,0,0,0,0,0,0,0,0,0,0,0,0,0,0,0,0,0,0,0,0,0,0,0,0,0,0,0,0,0,0,0,0,0,0,0,0,0,0,0,0,0,0,0,0,0,0,0,0,0,0,0,0,0],"sum_hessian":[5.5824E4,4.4806E4,1.1018E4,2.4825E4,1.9981E4,8.678E3,2.34E3,1.4079E4,1.0746E4,1.6033E4,3.948E3,5.32E3,3.358E3,1.605E3,7.35E2,8.247E3,5.832E3,3.72E3,7.026E3,1.1914E4,4.119E3,3.725E3,2.23E2,2.872E3,2.448E3,2.604E3,7.54E2,5.57E2,1.048E3,6.15E2,1.2E2,4.609E3,3.638E3,2.44E3,3.392E3,1.628E3,2.092E3,7.37E2,6.289E3,5.522E3,6.392E3,2.404E3,1.715E3,2.467E3,1.258E3,1.36E2,8.7E1,6.87E2,2.185E3,1.419E3,1.029E3,1.735E3,8.69E2,4E1,7.14E2,4.04E2,1.53E2,1.96E2,8.52E2,3.7E2,2.45E2,1.3E1,1.07E2,1.901E3,2.708E3,7.9E2,2.848E3,5.25E2,1.915E3,1.54E3,1.852E3,6.02E2,1.026E3,5.28E2,1.564E3,8.4E1,6.53E2,3.309E3,2.98E3,1.491E3,4.031E3,2.857E3,3.535E3,9.22E2,1.482E3,1.638E3,7.7E1,6.47E2,1.82E3,7.29E2,5.29E2,8.7E1,4.9E1,6.4E1,2.3E1,2.84E2,4.03E2,3.19E2,1.866E3,7.82E2,6.37E2,6.41E2,3.88E2,8.97E2,8.38E2,5.18E2,3.51E2,2.7E1,1.3E1,2.16E2,4.98E2,1.68E2,2.36E2,8E0,1.45E2,1E2,9.6E1,7E2,1.52E2,1.79E2,1.91E2,2.7E1,2.18E2,5.4E1,5.3E1],"tree_param":{"num_deleted":"0","num_feature":"22","num_nodes":"125","size_leaf_vector":"1"}},{"base_weights":[2.89486E-4,-2.920412E-1,4.6803766E-1,-5.254645E-1,-8.8990025E-2,2.764335E-1,1.0058053E0,-4.333325E-1,-7.490811E-1,7.5002335E-2,-2.756634E-1,8.286806E-2,4.8757556E-1,8.226433E-1,1.4582411E0,-5.745407E-1,-2.8239742E-1,-1.0734214E0,-6.716296E-1,-5.4655597E-2,3.091908E-1,-4.432703E-1,-8.174224E-2,2.6233634E-1,5.9653465E-3,4.272598E-1,7.713651E-1,6.8412554E-1,1.0551146E0,1.3210046E0,1.8574479E0,-3.7163064E-1,-7.86402E-1,-1.8928906E-2,-3.6231172E-1,-1.029379E0,-1.716461E0,-5.977972E-1,-8.585632E-1,1.4102872E-1,-1.7112051E-1,6.990861E-1,2.7807245E-1,-3.7400624E-1,-6.202333E-1,8.749323E-2,-4.4276688E-1,8.592852E-2,5.4744136E-1,-3.022598E-1,1.0372301E-1,5.2083904E-1,7.824423E-2,6.833336E-1,1.0675933E0,8.787248E-1,6.05342E-1,1.2297177E0,1.0045376E0,1.2200395E0,1.4750913E0,1.7224449E0,2.257433E0,-4.0426187E-2,-7.392143E-3,-9.768623E-2,-5.555693E-2,1.4681706E-2,-9.744542E-3,-3.557481E-2,-2.3409294E-2,-1.2064348E-1,-7.9677045E-2,-1.7304611E-1,-6.952784E-2,-5.5812437E-2,-3.7890945E-2,-6.0348433E-2,-8.028014E-2,-4.3793235E-2,1.3042276E-2,-1.7699905E-2,-1.6246254E-3,6.6115856E-2,2.194916E-3,1.2139627E-2,3.0461235E-2,-3.8206935E-2,-1.7446373E-2,-4.7082655E-2,-1.10554196E-1,-9.172691E-3,1.7433604E-2,-4.1198615E-2,5.866462E-2,3.0749682E-2,-2.897251E-3,-2.352404E-2,4.7892474E-2,-4.6481445E-2,-1.8503655E-2,1.7869165E-2,1.3834243E-3,6.5860316E-2,3.7469476E-2,1.5455751E-2,-3.8645796E-2,5.88925E-2,2.168611E-2,7.750788E-2,1.1800202E-1,6.334717E-2,1.0309952E-1,2.7112225E-2,5.5112362E-2,1.1513895E-1,8.3930336E-2,7.0289485E-2,8.944605E-2,1.0771653E-1,8.773927E-2,1.4170443E-1,1.14371486E-1,1.3803713E-1,3.1216506E-2,1.2162997E-1,1.8504085E-1],"categories":[],"categories_nodes":[],"categories_segments":[],"categories_sizes":[],"default_left":[0,0,0,0,0,0,0,0,0,0,0,0,0,0,0,0,0,0,0,0,0,0,0,0,0,0,0,0,0,0,0,0,0,0,0,0,0,0,0,0,0,0,0,0,0,0,0,0,0,0,0,0,0,0,0,0,0,0,0,0,0,0,0,0,0,0,0,0,0,0,0,0,0,0,0,0,0,0,0,0,0,0,0,0,0,0,0,0,0,0,0,0,0,0,0,0,0,0,0,0,0,0,0,0,0,0,0,0,0,0,0,0,0,0,0,0,0,0,0,0,0,0,0,0,0,0,0],"id":10,"left_children":[1,3,5,7,9,11,13,15,17,19,21,23,25,27,29,31,33,35,37,39,41,43,45,47,49,51,53,55,57,59,61,63,65,67,69,71,73,75,77,79,81,83,85,87,89,91,93,95,97,99,101,103,105,107,109,111,113,115,117,119,121,123,125,-1,-1,-1,-1,-1,-1,-1,-1,-1,-1,-1,-1,-1,-1,-1,-1,-1,-1,-1,-1,-1,-1,-1,-1,-1,-1,-1,-1,-1,-1,-1,-1,-1,-1,-1,-1,-1,-1,-1,-1,-1,-1,-1,-1,-1,-1,-1,-1,-1,-1,-1,-1,-1,-1,-1,-1,-1,-1,-1,-1,-1,-1,-1,-1],"loss_changes":[7.6334883E3,1.6282725E3,2.2120615E3,3.2894092E2,5.62504E2,6.4701025E2,4.6618164E2,2.4112524E2,1.1639136E2,2.9704138E2,2.7925793E2,1.14013435E2,1.2928027E2,1.2863135E2,8.6518555E1,2.511062E2,1.1524762E2,2.3636963E1,5.146411E1,1.43535E2,4.210089E1,5.6261414E1,2.4351495E2,1.2458339E2,1.743112E2,2.0399011E2,3.384912E1,3.8102783E1,1.1993408E1,1.7055908E1,1.841333E1,1.11538666E2,1.1344995E2,2.6577606E1,2.398236E1,1.1965942E1,1.9313019E1,3.3182556E1,1.5313416E1,3.568138E1,2.9842323E1,2.1961807E1,4.1844727E1,5.343622E1,3.0455505E1,7.158238E1,1.08410126E2,5.585994E1,4.0988556E1,2.74217E1,4.541225E1,7.777966E1,8.5395164E1,2.212143E1,1.0720886E1,2.4771729E1,3.9775574E1,1.1051849E1,1.5701782E1,1.0026611E1,3.8621826E0,5.8569336E-1,6.2072754E-1,0E0,0E0,0E0,0E0,0E0,0E0,0E0,0E0,0E0,0E0,0E0,0E0,0E0,0E0,0E0,0E0,0E0,0E0,0E0,0E0,0E0,0E0,0E0,0E0,0E0,0E0,0E0,0E0,0E0,0E0,0E0,0E0,0E0,0E0,0E0,0E0,0E0,0E0,0E0,0E0,0E0,0E0,0E0,0E0,0E0,0E0,0E0,0E0,0E0,0E0,0E0,0E0,0E0,0E0,0E0,0E0,0E0,0E0,0E0,0E0,0E0,0E0,0E0,0E0],"parents":[2147483647,0,0,1,1,2,2,3,3,4,4,5,5,6,6,7,7,8,8,9,9,10,10,11,11,12,12,13,13,14,14,15,15,16,16,17,17,18,18,19,19,20,20,21,21,22,22,23,23,24,24,25,25,26,26,27,27,28,28,29,29,30,30,31,31,32,32,33,33,34,34,35,35,36,36,37,37,38,38,39,39,40,40,41,41,42,42,43,43,44,44,45,45,46,46,47,47,48,48,49,49,50,50,51,51,52,52,53,53,54,54,55,55,56,56,57,57,58,58,59,59,60,60,61,61,62,62],"right_children":[2,4,6,8,10,12,14,16,18,20,22,24,26,28,30,32,34,36,38,40,42,44,46,48,50,52,54,56,58,60,62,64,66,68,70,72,74,76,78,80,82,84,86,88,90,92,94,96,98,100,102,104,106,108,110,112,114,116,118,120,122,124,126,-1,-1,-1,-1,-1,-1,-1,-1,-1,-1,-1,-1,-1,-1,-1,-1,-1,-1,-1,-1,-1,-1,-1,-1,-1,-1,-1,-1,-1,-1,-1,-1,-1,-1,-1,-1,-1,-1,-1,-1,-1,-1,-1,-1,-1,-1,-1,-1,-1,-1,-1,-1,-1,-1,-1,-1,-1,-1,-1,-1,-1,-1,-1,-1],"split_conditions":[2E0,4.243E3,7E0,1.2E1,1.6E1,1.1756E4,1.9E1,1.734E3,1.564E3,1.0275E4,1.5747E4,5E0,6.4079E4,4.9859E4,5.2E1,5E0,6E0,3.3E1,1.9E1,9E0,6E0,3.4E1,8.5E1,2.68E3,3.603E3,2.2E1,1.6648E5,1E0,1.1E1,1.2827E5,1.32E2,6.86E2,6.37E2,4E0,2.68E3,5.22E2,4.3E1,2.98E3,1E0,1E0,7.929E3,3E0,1.4642E4,8.76E3,1E0,2.2423E4,1.04248E5,0E0,1E0,1.646E3,9E0,7E0,1.1E2,5.3E1,8.7E1,2.1967E4,9.878E3,4E0,9.7866E4,4E0,4E0,3.20629E5,9.3118E4,-4.0426187E-2,-7.392143E-3,-9.768623E-2,-5.555693E-2,1.4681706E-2,-9.744542E-3,-3.557481E-2,-2.3409294E-2,-1.2064348E-1,-7.9677045E-2,-1.7304611E-1,-6.952784E-2,-5.5812437E-2,-3.7890945E-2,-6.0348433E-2,-8.028014E-2,-4.3793235E-2,1.3042276E-2,-1.7699905E-2,-1.6246254E-3,6.6115856E-2,2.194916E-3,1.2139627E-2,3.0461235E-2,-3.8206935E-2,-1.7446373E-2,-4.7082655E-2,-1.10554196E-1,-9.172691E-3,1.7433604E-2,-4.1198615E-2,5.866462E-2,3.0749682E-2,-2.897251E-3,-2.352404E-2,4.7892474E-2,-4.6481445E-2,-1.8503655E-2,1.7869165E-2,1.3834243E-3,6.5860316E-2,3.7469476E-2,1.5455751E-2,-3.8645796E-2,5.88925E-2,2.168611E-2,7.750788E-2,1.1800202E-1,6.334717E-2,1.0309952E-1,2.7112225E-2,5.5112362E-2,1.1513895E-1,8.3930336E-2,7.0289485E-2,8.944605E-2,1.0771653E-1,8.773927E-2,1.4170443E-1,1.14371486E-1,1.3803713E-1,3.1216506E-2,1.2162997E-1,1.8504085E-1],"split_indices":[2,4,2,3,3,4,2,4,4,4,4,3,4,4,2,3,3,3,3,3,3,3,3,4,4,3,4,5,3,4,2,4,4,3,4,4,3,4,21,3,4,5,4,4,20,4,4,3,3,4,3,3,3,3,3,4,4,5,4,5,5,1,4,0,0,0,0,0,0,0,0,0,0,0,0,0,0,0,0,0,0,0,0,0,0,0,0,0,0,0,0,0,0,0,0,0,0,0,0,0,0,0,0,0,0,0,0,0,0,0,0,0,0,0,0,0,0,0,0,0,0,0,0,0,0,0,0],"split_type":[0,0,0,0,0,0,0,0,0,0,0,0,0,0,0,0,0,0,0,0,0,0,0,0,0,0,0,0,0,0,0,0,0,0,0,0,0,0,0,0,0,0,0,0,0,0,0,0,0,0,0,0,0,0,0,0,0,0,0,0,0,0,0,0,0,0,0,0,0,0,0,0,0,0,0,0,0,0,0,0,0,0,0,0,0,0,0,0,0,0,0,0,0,0,0,0,0,0,0,0,0,0,0,0,0,0,0,0,0,0,0,0,0,0,0,0,0,0,0,0,0,0,0,0,0,0,0],"sum_hessian":[5.5824E4,3.4354E4,2.147E4,1.5981E4,1.8373E4,1.5831E4,5.639E3,1.132E4,4.661E3,9.781E3,8.592E3,8.26E3,7.571E3,4.016E3,1.623E3,5.847E3,5.473E3,8.96E2,3.765E3,6.296E3,3.485E3,4.608E3,3.984E3,2.477E3,5.783E3,6.246E3,1.325E3,2.519E3,1.497E3,1.211E3,4.12E2,2.988E3,2.859E3,1.274E3,4.199E3,8.41E2,5.5E1,2.702E3,1.063E3,2.349E3,3.947E3,2.56E2,3.229E3,3.314E3,1.294E3,2.713E3,1.271E3,1.531E3,9.46E2,1.392E3,4.391E3,4.925E3,1.321E3,1.024E3,3.01E2,7.23E2,1.796E3,3.31E2,1.166E3,7.37E2,4.74E2,3.12E2,1E2,2.02E3,9.68E2,4.97E2,2.362E3,4.29E2,8.45E2,1.922E3,2.277E3,5.2E1,7.89E2,3.5E1,2E1,1.495E3,1.207E3,6.22E2,4.41E2,7.2E1,2.277E3,2.962E3,9.85E2,2.15E2,4.1E1,1.449E3,1.78E3,1.99E3,1.324E3,1.244E3,5E1,1.064E3,1.649E3,1.198E3,7.3E1,4.44E2,1.087E3,5.4E1,8.92E2,2.81E2,1.111E3,1.841E3,2.55E3,7.26E2,4.199E3,1.097E3,2.24E2,9.07E2,1.17E2,2.45E2,5.6E1,5.99E2,1.24E2,4.3E2,1.366E3,1.5E2,1.81E2,5.57E2,6.09E2,3.59E2,3.78E2,5.8E1,4.16E2,3.11E2,1E0,9E0,9.1E1],"tree_param":{"num_deleted":"0","num_feature":"22","num_nodes":"127","size_leaf_vector":"1"}},{"base_weights":[2.8134967E-4,-2.6870877E-1,4.3068308E-1,-5.030504E-1,-9.6931376E-2,2.733324E-1,9.8708755E-1,-3.0047956E-1,-5.9741825E-1,-3.525284E-3,-3.5127592E-1,1.226675E-1,5.175097E-1,8.0877745E-1,1.3602052E0,-5.0134414E-1,-1.195614E-1,-9.4140774E-1,-5.2446824E-1,-1.22447975E-1,2.4032451E-1,-4.6411207E-1,-5.0267264E-2,-2.2121701E-2,2.2589694E-1,5.537719E-1,5.3425577E-2,6.981536E-1,1.0195444E0,1.2548321E0,1.8022997E0,-3.3047965E-1,-8.3478713E-1,2.1956055E-1,-2.2588445E-1,-1.4885094E0,-8.9239156E-1,-4.361465E-1,-6.868534E-1,1.5748549E-1,-2.0724973E-1,1.7189284E-1,4.453599E-1,-6.2001765E-1,-3.8718164E-1,8.4661126E-2,-4.3976563E-1,2.4339211E-1,-1.5514825E-1,4.4458053E-1,1.0874914E-1,4.3435776E-1,6.809483E-1,-1.7783308E-1,1.2552583E0,8.691698E-1,6.3362265E-1,1.1270882E0,9.394386E-1,1.013475E0,1.3185842E0,1.683319E0,2.225271E0,-1.9116936E-2,-5.969028E-2,-1.0554574E-1,-5.5233773E-2,-5.813841E-2,2.8557906E-2,-3.2620832E-2,-9.620523E-3,-1.24999665E-1,-4.5035694E-2,-6.9123454E-2,-1.3726944E-1,-4.9210347E-2,-2.9913532E-2,-5.3768024E-2,-1.036986E-1,-4.174676E-2,1.4605877E-2,-9.301846E-3,-2.452715E-2,2.437018E-2,3.8108474E-3,3.4252588E-2,8.1371725E-2,-4.7516804E-2,-9.3422204E-2,-1.9139282E-2,-4.597946E-2,3.4374648E-3,8.9123696E-2,-9.626823E-2,-3.1822167E-2,8.21187E-3,4.2594474E-2,-4.0118113E-2,-7.6894057E-3,5.8351457E-2,2.9929966E-2,1.3321907E-2,6.3198095E-4,5.7204932E-2,2.9390845E-2,7.39169E-2,4.9922332E-2,-4.6238713E-2,-1.0006464E-3,5.478587E-2,1.1091626E-1,6.233272E-2,9.835892E-2,2.7208308E-2,5.6480665E-2,1.0127238E-1,8.102142E-2,6.903447E-2,1.006857E-1,9.067105E-2,6.372626E-2,1.2717523E-1,9.966212E-2,1.374856E-1,1.0703395E-1,1.1454581E-1,1.8412882E-1],"categories":[],"categories_nodes":[],"categories_segments":[],"categories_sizes":[],"default_left":[0,0,0,0,0,0,0,0,0,0,0,0,0,0,0,0,0,0,0,0,0,0,0,0,0,0,0,0,0,0,0,0,0,0,0,0,0,0,0,0,0,0,0,0,0,0,0,0,0,0,0,0,0,0,0,0,0,0,0,0,0,0,0,0,0,0,0,0,0,0,0,0,0,0,0,0,0,0,0,0,0,0,0,0,0,0,0,0,0,0,0,0,0,0,0,0,0,0,0,0,0,0,0,0,0,0,0,0,0,0,0,0,0,0,0,0,0,0,0,0,0,0,0,0,0,0,0],"id":11,"left_children":[1,3,5,7,9,11,13,15,17,19,21,23,25,27,29,31,33,35,37,39,41,43,45,47,49,51,53,55,57,59,61,63,65,67,69,71,73,75,77,79,81,83,85,87,89,91,93,95,97,99,101,103,105,107,109,111,113,115,117,119,121,123,125,-1,-1,-1,-1,-1,-1,-1,-1,-1,-1,-1,-1,-1,-1,-1,-1,-1,-1,-1,-1,-1,-1,-1,-1,-1,-1,-1,-1,-1,-1,-1,-1,-1,-1,-1,-1,-1,-1,-1,-1,-1,-1,-1,-1,-1,-1,-1,-1,-1,-1,-1,-1,-1,-1,-1,-1,-1,-1,-1,-1,-1,-1,-1,-1],"loss_changes":[6.463189E3,1.382898E3,1.8795295E3,2.7759766E2,4.7098785E2,6.157467E2,3.1378955E2,1.6783112E2,2.4823853E2,4.205479E2,1.808385E2,1.5474622E2,1.0745557E2,7.401538E1,6.896655E1,1.2443921E2,8.7738945E1,4.514514E1,1.1701929E2,2.314389E2,6.6626434E1,4.621222E1,7.639876E1,1.5226863E2,1.5478867E2,8.966992E1,1.2918471E2,2.267981E1,8.426147E0,1.771289E1,1.0949219E1,5.4940704E1,5.0921875E1,7.580854E1,3.5530067E1,8.77594E0,3.5704712E1,5.8810608E1,2.5020508E1,3.873124E1,6.758362E1,5.88003E1,1.1259705E1,1.7547607E1,7.189627E1,4.630354E1,1.1512489E1,5.8484444E1,5.866694E1,4.20278E1,2.2937786E1,5.7225708E1,3.908008E1,2.5793198E1,4.6633987E0,1.7658203E1,3.230957E1,6.097351E0,1.446698E1,5.9375E0,1.7284424E1,5.253906E-1,3.9935303E-1,0E0,0E0,0E0,0E0,0E0,0E0,0E0,0E0,0E0,0E0,0E0,0E0,0E0,0E0,0E0,0E0,0E0,0E0,0E0,0E0,0E0,0E0,0E0,0E0,0E0,0E0,0E0,0E0,0E0,0E0,0E0,0E0,0E0,0E0,0E0,0E0,0E0,0E0,0E0,0E0,0E0,0E0,0E0,0E0,0E0,0E0,0E0,0E0,0E0,0E0,0E0,0E0,0E0,0E0,0E0,0E0,0E0,0E0,0E0,0E0,0E0,0E0,0E0,0E0],"parents":[2147483647,0,0,1,1,2,2,3,3,4,4,5,5,6,6,7,7,8,8,9,9,10,10,11,11,12,12,13,13,14,14,15,15,16,16,17,17,18,18,19,19,20,20,21,21,22,22,23,23,24,24,25,25,26,26,27,27,28,28,29,29,30,30,31,31,32,32,33,33,34,34,35,35,36,36,37,37,38,38,39,39,40,40,41,41,42,42,43,43,44,44,45,45,46,46,47,47,48,48,49,49,50,50,51,51,52,52,53,53,54,54,55,55,56,56,57,57,58,58,59,59,60,60,61,61,62,62],"right_children":[2,4,6,8,10,12,14,16,18,20,22,24,26,28,30,32,34,36,38,40,42,44,46,48,50,52,54,56,58,60,62,64,66,68,70,72,74,76,78,80,82,84,86,88,90,92,94,96,98,100,102,104,106,108,110,112,114,116,118,120,122,124,126,-1,-1,-1,-1,-1,-1,-1,-1,-1,-1,-1,-1,-1,-1,-1,-1,-1,-1,-1,-1,-1,-1,-1,-1,-1,-1,-1,-1,-1,-1,-1,-1,-1,-1,-1,-1,-1,-1,-1,-1,-1,-1,-1,-1,-1,-1,-1,-1,-1,-1,-1,-1,-1,-1,-1,-1,-1,-1,-1,-1,-1,-1,-1,-1],"split_conditions":[2E0,3.704E3,8E0,6E0,2.4E1,1.6714E4,2E1,6.86E2,1.168E3,1.1224E4,3.0188E4,4.853E3,7.2E1,5.9807E4,6.8E1,2E0,3E0,4.1E2,1.3E1,8E0,2.6651E4,8.328E3,1E0,3E0,8E0,3.4336E4,1.6648E5,1E0,5E0,3.3588E4,1.84E2,1E0,2.79E2,1E0,1.39E3,6.59E2,3.3E1,1.774E3,4.9E1,1E0,1.3E1,1.3E1,6.06E2,1E0,4.9E1,6.87266E5,8E0,1.39E3,1.564E3,4E0,2E0,8E0,1.1E1,1.0601E5,8.7E1,2.1967E4,1.0016E4,1.5E1,2.97933E5,5E0,4E0,3.4E1,9.7866E4,-1.9116936E-2,-5.969028E-2,-1.0554574E-1,-5.5233773E-2,-5.813841E-2,2.8557906E-2,-3.2620832E-2,-9.620523E-3,-1.24999665E-1,-4.5035694E-2,-6.9123454E-2,-1.3726944E-1,-4.9210347E-2,-2.9913532E-2,-5.3768024E-2,-1.036986E-1,-4.174676E-2,1.4605877E-2,-9.301846E-3,-2.452715E-2,2.437018E-2,3.8108474E-3,3.4252588E-2,8.1371725E-2,-4.7516804E-2,-9.3422204E-2,-1.9139282E-2,-4.597946E-2,3.4374648E-3,8.9123696E-2,-9.626823E-2,-3.1822167E-2,8.21187E-3,4.2594474E-2,-4.0118113E-2,-7.6894057E-3,5.8351457E-2,2.9929966E-2,1.3321907E-2,6.3198095E-4,5.7204932E-2,2.9390845E-2,7.39169E-2,4.9922332E-2,-4.6238713E-2,-1.0006464E-3,5.478587E-2,1.1091626E-1,6.233272E-2,9.835892E-2,2.7208308E-2,5.6480665E-2,1.0127238E-1,8.102142E-2,6.903447E-2,1.006857E-1,9.067105E-2,6.372626E-2,1.2717523E-1,9.966212E-2,1.374856E-1,1.0703395E-1,1.1454581E-1,1.8412882E-1],"split_indices":[2,4,2,3,3,4,2,4,4,4,4,4,3,4,2,3,3,4,3,3,4,4,10,3,3,4,4,5,5,4,2,10,4,3,4,0,3,4,3,3,3,3,0,20,3,4,0,4,4,3,5,3,3,1,3,4,4,3,4,3,5,3,4,0,0,0,0,0,0,0,0,0,0,0,0,0,0,0,0,0,0,0,0,0,0,0,0,0,0,0,0,0,0,0,0,0,0,0,0,0,0,0,0,0,0,0,0,0,0,0,0,0,0,0,0,0,0,0,0,0,0,0,0,0,0,0,0],"split_type":[0,0,0,0,0,0,0,0,0,0,0,0,0,0,0,0,0,0,0,0,0,0,0,0,0,0,0,0,0,0,0,0,0,0,0,0,0,0,0,0,0,0,0,0,0,0,0,0,0,0,0,0,0,0,0,0,0,0,0,0,0,0,0,0,0,0,0,0,0,0,0,0,0,0,0,0,0,0,0,0,0,0,0,0,0,0,0,0,0,0,0,0,0,0,0,0,0,0,0,0,0,0,0,0,0,0,0,0,0,0,0,0,0,0,0,0,0,0,0,0,0,0,0,0,0,0,0],"sum_hessian":[5.5824E4,3.4354E4,2.147E4,1.453E4,1.9824E4,1.6738E4,4.732E3,4.619E3,9.911E3,1.45E4,5.324E3,1.0352E4,6.386E3,3.204E3,1.528E3,2.188E3,2.431E3,1.732E3,8.179E3,9.747E3,4.753E3,3.872E3,1.452E3,4.309E3,6.043E3,5.923E3,4.63E2,2.104E3,1.1E3,1.237E3,2.91E2,1.448E3,7.4E2,5.8E2,1.851E3,1.4E2,1.592E3,5.3E3,2.879E3,2.266E3,7.481E3,3.565E3,1.188E3,1.277E3,2.595E3,1.079E3,3.73E2,1.438E3,2.871E3,2.107E3,3.936E3,3.057E3,2.866E3,3.89E2,7.4E1,5.73E2,1.531E3,4.64E2,6.36E2,2.62E2,9.75E2,2.31E2,6E1,1.188E3,2.6E2,1.68E2,5.72E2,7.3E1,5.07E2,6.79E2,1.172E3,1.29E2,1.1E1,1.541E3,5.1E1,1.365E3,3.935E3,2.813E3,6.6E1,8E1,2.186E3,3.906E3,3.575E3,1.723E3,1.842E3,1.155E3,3.3E1,1.221E3,5.6E1,1.452E3,1.143E3,1.038E3,4.1E1,1.8E1,3.55E2,9.68E2,4.7E2,4.17E2,2.454E3,4.16E2,1.691E3,2.502E3,1.434E3,5.87E2,2.47E3,5.41E2,2.325E3,1.13E2,2.76E2,1.5E1,5.9E1,4.61E2,1.12E2,3.04E2,1.227E3,2.05E2,2.59E2,5.16E2,1.2E2,1.66E2,9.6E1,2.02E2,7.73E2,2.06E2,2.5E1,7E0,5.3E1],"tree_param":{"num_deleted":"0","num_feature":"22","num_nodes":"127","size_leaf_vector":"1"}},{"base_weights":[2.744386E-4,-1.556578E-1,6.343479E-1,-3.5978732E-1,4.6809E-2,4.8015985E-1,1.068697E0,-4.7978476E-1,-1.9692187E-1,1.668722E-1,-1.6001983E-1,3.5312402E-1,7.268419E-1,9.31217E-1,1.4241635E0,-3.9632735E-1,-6.403386E-1,-2.3141662E-2,-2.9977763E-1,6.0637847E-2,3.7910444E-1,-2.7829447E-1,1.6245471E-1,2.6613247E-1,4.747855E-1,1.0636848E0,6.914414E-1,8.092558E-1,1.0762295E0,1.3259454E0,1.8167245E0,-5.337669E-1,-2.4535577E-1,-7.912276E-1,-4.9235567E-1,-1.7383967E-1,1.0655205E-1,-6.7264706E-1,-2.4690287E-1,2.9592478E-1,-1.8462358E-2,2.8697783E-1,4.7621164E-1,-2.027978E-1,-5.273E-1,5.9653237E-2,6.69156E-1,5.1906496E-1,1.9753699E-1,7.711778E-1,3.8574705E-1,1.1167177E0,4.8266854E-2,6.2696475E-1,8.830517E-1,9.031098E-1,6.836786E-1,1.75259E0,1.0597818E0,9.7945416E-1,1.3508773E0,1.3248187E-1,1.6521944E-1,-3.016129E-2,-5.300298E-2,-6.577111E-3,-2.5712585E-2,-6.0612585E-2,-1.112726E-1,-3.5435535E-2,-5.813695E-2,1.6394932E-2,-3.1685423E-2,2.9373726E-2,1.1005726E-3,-1.00649774E-1,-4.7641974E-2,-1.0144142E-2,-2.7413981E-2,-3.1089872E-2,2.6333233E-2,-9.925784E-3,6.0840403E-3,4.5555923E-2,1.8765569E-2,2.5013287E-2,4.1893218E-2,-2.992556E-2,-5.7263635E-3,5.000245E-3,-4.4585742E-2,2.0543654E-2,-2.6121039E-2,6.106948E-2,3.4712995E-3,3.039707E-2,7.063181E-2,-2.3221903E-2,1.9844983E-2,7.275413E-2,4.523192E-2,3.4551274E-2,9.955034E-3,8.355484E-2,1.11690745E-1,-5.9359033E-2,2.6499547E-2,6.532425E-2,4.330734E-2,1.20161675E-1,6.787159E-2,5.709319E-2,8.502607E-2,3.8600795E-2,6.0041264E-2,1.4442165E-1,2.7959023E-2,8.0352955E-2,1.0052664E-1,1.0449047E-1,5.6890644E-2,1.2608115E-1,1.0320947E-1],"categories":[],"categories_nodes":[],"categories_segments":[],"categories_sizes":[],"default_left":[0,0,0,0,0,0,0,0,0,0,0,0,0,0,0,0,0,0,0,0,0,0,0,0,0,0,0,0,0,0,0,0,0,0,0,0,0,0,0,0,0,0,0,0,0,0,0,0,0,0,0,0,0,0,0,0,0,0,0,0,0,0,0,0,0,0,0,0,0,0,0,0,0,0,0,0,0,0,0,0,0,0,0,0,0,0,0,0,0,0,0,0,0,0,0,0,0,0,0,0,0,0,0,0,0,0,0,0,0,0,0,0,0,0,0,0,0,0,0,0,0,0,0],"id":12,"left_children":[1,3,5,7,9,11,13,15,17,19,21,23,25,27,29,31,33,35,37,39,41,43,45,47,49,51,53,55,57,59,61,63,65,67,69,71,73,75,77,79,81,83,85,87,89,91,93,95,97,99,101,103,105,107,109,111,113,115,117,119,121,-1,-1,-1,-1,-1,-1,-1,-1,-1,-1,-1,-1,-1,-1,-1,-1,-1,-1,-1,-1,-1,-1,-1,-1,-1,-1,-1,-1,-1,-1,-1,-1,-1,-1,-1,-1,-1,-1,-1,-1,-1,-1,-1,-1,-1,-1,-1,-1,-1,-1,-1,-1,-1,-1,-1,-1,-1,-1,-1,-1,-1,-1],"loss_changes":[5.519656E3,1.8518652E3,7.374453E2,4.3595898E2,5.5865936E2,2.5464209E2,1.3971094E2,1.7187476E2,1.6920901E2,3.2090182E2,3.152007E2,5.6717712E1,3.2223633E1,3.5986572E1,2.8552246E1,1.7530591E2,9.767932E1,6.883501E1,1.1708124E2,1.7657036E2,4.233972E1,1.1355237E2,1.154949E2,5.4272446E1,5.8764038E1,1.4001099E1,3.0381714E1,1.2771362E1,8.699829E0,4.2574463E0,2.8899536E0,8.906824E1,4.998697E1,4.269165E1,2.5385437E1,1.3720183E2,4.577557E1,3.2573822E1,5.9883575E1,5.444368E1,7.088805E1,3.597293E1,1.7763794E1,1.0427496E2,2.4930725E1,1.4054324E2,2.2016022E1,3.3471817E1,6.087561E1,1.4165344E1,2.0721893E1,3.5506287E0,3.3765197E0,3.0027527E1,1.2197235E1,1.8818054E1,6.226181E0,9.213257E-1,8.861084E0,3.1909218E0,6.1741943E0,0E0,0E0,0E0,0E0,0E0,0E0,0E0,0E0,0E0,0E0,0E0,0E0,0E0,0E0,0E0,0E0,0E0,0E0,0E0,0E0,0E0,0E0,0E0,0E0,0E0,0E0,0E0,0E0,0E0,0E0,0E0,0E0,0E0,0E0,0E0,0E0,0E0,0E0,0E0,0E0,0E0,0E0,0E0,0E0,0E0,0E0,0E0,0E0,0E0,0E0,0E0,0E0,0E0,0E0,0E0,0E0,0E0,0E0,0E0,0E0,0E0,0E0],"parents":[2147483647,0,0,1,1,2,2,3,3,4,4,5,5,6,6,7,7,8,8,9,9,10,10,11,11,12,12,13,13,14,14,15,15,16,16,17,17,18,18,19,19,20,20,21,21,22,22,23,23,24,24,25,25,26,26,27,27,28,28,29,29,30,30,31,31,32,32,33,33,34,34,35,35,36,36,37,37,38,38,39,39,40,40,41,41,42,42,43,43,44,44,45,45,46,46,47,47,48,48,49,49,50,50,51,51,52,52,53,53,54,54,55,55,56,56,57,57,58,58,59,59,60,60],"right_children":[2,4,6,8,10,12,14,16,18,20,22,24,26,28,30,32,34,36,38,40,42,44,46,48,50,52,54,56,58,60,62,64,66,68,70,72,74,76,78,80,82,84,86,88,90,92,94,96,98,100,102,104,106,108,110,112,114,116,118,120,122,-1,-1,-1,-1,-1,-1,-1,-1,-1,-1,-1,-1,-1,-1,-1,-1,-1,-1,-1,-1,-1,-1,-1,-1,-1,-1,-1,-1,-1,-1,-1,-1,-1,-1,-1,-1,-1,-1,-1,-1,-1,-1,-1,-1,-1,-1,-1,-1,-1,-1,-1,-1,-1,-1,-1,-1,-1,-1,-1,-1,-1,-1],"split_conditions":[4E0,5.364E3,1.2E1,1E0,1.9E1,3.0188E4,3.2E1,1.2E1,6E0,1.4379E4,3.4336E4,1.2895E4,8E0,6.9609E4,9.8E1,1.936E3,2.894E3,1.168E3,1.525E3,8E0,2.3268E4,1E0,1.04248E5,2E0,7E0,1E1,1.10874E5,3E0,5E0,1.9797E4,1.9E2,5E0,7E0,4.2E1,1E0,0E0,3E0,4.6E2,1E1,1E0,8.133E3,8E0,1E0,1.195E4,3.1E1,7.4E1,1E0,2.215E3,2.215E3,2E0,2.1E1,7.6096E4,1E0,2E0,4E1,1.3309E4,2.0674E4,2.9E1,2.97933E5,1E0,4E0,1.3248187E-1,1.6521944E-1,-3.016129E-2,-5.300298E-2,-6.577111E-3,-2.5712585E-2,-6.0612585E-2,-1.112726E-1,-3.5435535E-2,-5.813695E-2,1.6394932E-2,-3.1685423E-2,2.9373726E-2,1.1005726E-3,-1.00649774E-1,-4.7641974E-2,-1.0144142E-2,-2.7413981E-2,-3.1089872E-2,2.6333233E-2,-9.925784E-3,6.0840403E-3,4.5555923E-2,1.8765569E-2,2.5013287E-2,4.1893218E-2,-2.992556E-2,-5.7263635E-3,5.000245E-3,-4.4585742E-2,2.0543654E-2,-2.6121039E-2,6.106948E-2,3.4712995E-3,3.039707E-2,7.063181E-2,-2.3221903E-2,1.9844983E-2,7.275413E-2,4.523192E-2,3.4551274E-2,9.955034E-3,8.355484E-2,1.11690745E-1,-5.9359033E-2,2.6499547E-2,6.532425E-2,4.330734E-2,1.20161675E-1,6.787159E-2,5.709319E-2,8.502607E-2,3.8600795E-2,6.0041264E-2,1.4442165E-1,2.7959023E-2,8.0352955E-2,1.0052664E-1,1.0449047E-1,5.6890644E-2,1.2608115E-1,1.0320947E-1],"split_indices":[2,4,2,2,3,4,2,3,3,4,4,4,3,4,2,4,4,4,4,3,4,10,4,3,3,5,4,5,3,4,2,3,3,3,10,3,3,4,3,3,4,3,2,4,0,3,11,4,4,5,3,4,21,5,0,4,4,2,4,3,5,0,0,0,0,0,0,0,0,0,0,0,0,0,0,0,0,0,0,0,0,0,0,0,0,0,0,0,0,0,0,0,0,0,0,0,0,0,0,0,0,0,0,0,0,0,0,0,0,0,0,0,0,0,0,0,0,0,0,0,0,0,0],"split_type":[0,0,0,0,0,0,0,0,0,0,0,0,0,0,0,0,0,0,0,0,0,0,0,0,0,0,0,0,0,0,0,0,0,0,0,0,0,0,0,0,0,0,0,0,0,0,0,0,0,0,0,0,0,0,0,0,0,0,0,0,0,0,0,0,0,0,0,0,0,0,0,0,0,0,0,0,0,0,0,0,0,0,0,0,0,0,0,0,0,0,0,0,0,0,0,0,0,0,0,0,0,0,0,0,0,0,0,0,0,0,0,0,0,0,0,0,0,0,0,0,0,0,0],"sum_hessian":[5.5824E4,4.4806E4,1.1018E4,2.2311E4,2.2495E4,8.133E3,2.885E3,1.2845E4,9.466E3,1.4233E4,8.262E3,5.37E3,2.763E3,2.083E3,8.02E2,8.454E3,4.391E3,3.52E3,5.946E3,9.486E3,4.747E3,6.045E3,2.217E3,3.133E3,2.237E3,2.6E2,2.503E3,1.135E3,9.48E2,6.45E2,1.57E2,4.424E3,4.03E3,2.172E3,2.219E3,1.628E3,1.892E3,7.37E2,5.209E3,2.386E3,7.1E3,2.438E3,2.309E3,4.64E3,1.405E3,1.844E3,3.73E2,6.67E2,2.466E3,5.15E2,1.722E3,2.47E2,1.3E1,1.876E3,6.27E2,6.46E2,4.89E2,2E1,9.28E2,4.6E1,5.99E2,1E2,5.7E1,1.997E3,2.427E3,1.282E3,2.748E3,2.059E3,1.13E2,1.835E3,3.84E2,6.02E2,1.026E3,4.96E2,1.396E3,8.4E1,6.53E2,2.312E3,2.897E3,1.1E2,2.276E3,3.353E3,3.747E3,3.8E2,2.058E3,5.21E2,1.788E3,2.012E3,2.628E3,6.8E1,1.337E3,1.221E3,6.23E2,3.24E2,4.9E1,4.84E2,1.83E2,2.31E2,2.235E3,3.06E2,2.09E2,1.463E3,2.59E2,2E2,4.7E1,3E0,1E1,5.81E2,1.295E3,3.1E1,5.96E2,2.98E2,3.48E2,1.24E2,3.65E2,1.9E1,1E0,7.29E2,1.99E2,1.9E1,2.7E1,1.22E2,4.77E2],"tree_param":{"num_deleted":"0","num_feature":"22","num_nodes":"123","size_leaf_vector":"1"}},{"base_weights":[2.8036488E-4,-2.2921497E-1,3.6748785E-1,-4.1263494E-1,-6.966085E-2,1.9374982E-1,7.324753E-1,-3.1506416E-1,-5.5114245E-1,6.2421978E-2,-2.2001167E-1,1.5024778E-2,3.2881632E-1,5.943861E-1,1.1108917E0,-4.5757276E-1,-1.9910654E-1,-8.0597466E-1,-4.866048E-1,-6.0762357E-2,2.1773311E-1,-3.5408783E-1,-6.488569E-2,1.9463447E-1,-5.307362E-2,2.949263E-1,6.2263435E-1,4.253615E-1,7.3488295E-1,1.0016192E0,1.4398597E0,-2.872241E-1,-6.6786677E-1,1.694351E-1,-2.4749807E-1,-7.816104E-1,-1.3476087E0,-4.361151E-1,-6.858761E-1,1.8380363E-1,-1.2604913E-1,5.6493896E-1,1.8864337E-1,-4.3713218E-1,-2.4611096E-1,1.09991364E-1,-2.9336226E-1,7.430293E-2,4.5091495E-1,-2.421963E-1,4.7499392E-2,4.8454878E-1,2.1503265E-1,5.328908E-1,8.5342705E-1,5.7657874E-1,3.4200284E-1,9.608382E-1,6.8852854E-1,7.628873E-1,1.0492016E0,1.3672423E0,1.8912449E0,-3.179039E-2,-2.6290596E-3,-9.3752354E-2,-4.716642E-2,-4.80149E-2,1.9844824E-2,-2.5930576E-2,-1.2419858E-2,-9.3502775E-2,-5.956077E-2,-1.4039731E-1,-4.6808742E-2,-4.317359E-2,-2.9113123E-2,-6.084065E-2,-4.035015E-2,-4.064117E-2,1.8111523E-2,-1.4768637E-2,-3.1105527E-3,5.22234E-2,-2.3145527E-3,7.598181E-3,2.353034E-2,-3.764419E-2,-1.2910137E-2,-1.3771055E-2,-3.4005485E-2,2.3854612E-3,2.536972E-2,-2.6037548E-2,7.77885E-2,2.4102056E-2,-3.6987623E-3,-3.209683E-2,4.3104794E-2,-4.6617225E-2,-1.5498197E-2,9.894984E-3,-3.7561564E-3,3.4201995E-2,5.450852E-2,1.940573E-2,-3.211978E-2,5.7415616E-2,3.169234E-2,1.0986424E-1,6.0318187E-2,3.4516793E-2,6.855297E-2,1.6365392E-3,3.0718496E-2,9.2758894E-2,6.599992E-2,4.4762786E-2,6.367085E-2,7.2203256E-2,4.2558335E-2,1.01962365E-1,7.916199E-2,1.3766432E-1,1.061081E-1,9.5289625E-2,1.5679552E-1],"categories":[],"categories_nodes":[],"categories_segments":[],"categories_sizes":[],"default_left":[0,0,0,0,0,0,0,0,0,0,0,0,0,0,0,0,0,0,0,0,0,0,0,0,0,0,0,0,0,0,0,0,0,0,0,0,0,0,0,0,0,0,0,0,0,0,0,0,0,0,0,0,0,0,0,0,0,0,0,0,0,0,0,0,0,0,0,0,0,0,0,0,0,0,0,0,0,0,0,0,0,0,0,0,0,0,0,0,0,0,0,0,0,0,0,0,0,0,0,0,0,0,0,0,0,0,0,0,0,0,0,0,0,0,0,0,0,0,0,0,0,0,0,0,0,0,0],"id":13,"left_children":[1,3,5,7,9,11,13,15,17,19,21,23,25,27,29,31,33,35,37,39,41,43,45,47,49,51,53,55,57,59,61,63,65,67,69,71,73,75,77,79,81,83,85,87,89,91,93,95,97,99,101,103,105,107,109,111,113,115,117,119,121,123,125,-1,-1,-1,-1,-1,-1,-1,-1,-1,-1,-1,-1,-1,-1,-1,-1,-1,-1,-1,-1,-1,-1,-1,-1,-1,-1,-1,-1,-1,-1,-1,-1,-1,-1,-1,-1,-1,-1,-1,-1,-1,-1,-1,-1,-1,-1,-1,-1,-1,-1,-1,-1,-1,-1,-1,-1,-1,-1,-1,-1,-1,-1,-1,-1],"loss_changes":[4.704591E3,1.0053845E3,1.3613811E3,2.1581177E2,3.6489862E2,3.5118042E2,3.611548E2,1.5489642E2,1.08218994E2,1.8716148E2,1.787002E2,7.661391E1,8.232428E1,1.2020557E2,6.50603E1,1.5051678E2,9.229872E1,1.6537598E1,5.2743164E1,8.713869E1,4.359671E1,4.1220703E1,1.5925417E2,5.307061E1,8.640324E1,1.1247272E2,1.7274841E1,2.8870544E1,2.835144E1,1.5011963E1,1.2459473E1,6.515988E1,7.3571655E1,3.651638E1,3.2278442E1,1.748761E1,1.6367317E1,3.1273315E1,1.4029022E1,3.399957E1,2.1977524E1,1.7444878E1,3.9434586E1,2.3921997E1,2.6482231E1,3.7487488E1,7.0539856E1,3.2105713E1,4.140983E1,2.591481E1,2.1349295E1,2.4421143E1,8.889551E1,1.5357513E1,1.1269501E1,3.2907898E1,2.0090637E1,1.1698975E1,3.1433716E1,7.097946E0,1.4310181E1,3.486206E0,5.994415E-1,0E0,0E0,0E0,0E0,0E0,0E0,0E0,0E0,0E0,0E0,0E0,0E0,0E0,0E0,0E0,0E0,0E0,0E0,0E0,0E0,0E0,0E0,0E0,0E0,0E0,0E0,0E0,0E0,0E0,0E0,0E0,0E0,0E0,0E0,0E0,0E0,0E0,0E0,0E0,0E0,0E0,0E0,0E0,0E0,0E0,0E0,0E0,0E0,0E0,0E0,0E0,0E0,0E0,0E0,0E0,0E0,0E0,0E0,0E0,0E0,0E0,0E0,0E0,0E0],"parents":[2147483647,0,0,1,1,2,2,3,3,4,4,5,5,6,6,7,7,8,8,9,9,10,10,11,11,12,12,13,13,14,14,15,15,16,16,17,17,18,18,19,19,20,20,21,21,22,22,23,23,24,24,25,25,26,26,27,27,28,28,29,29,30,30,31,31,32,32,33,33,34,34,35,35,36,36,37,37,38,38,39,39,40,40,41,41,42,42,43,43,44,44,45,45,46,46,47,47,48,48,49,49,50,50,51,51,52,52,53,53,54,54,55,55,56,56,57,57,58,58,59,59,60,60,61,61,62,62],"right_children":[2,4,6,8,10,12,14,16,18,20,22,24,26,28,30,32,34,36,38,40,42,44,46,48,50,52,54,56,58,60,62,64,66,68,70,72,74,76,78,80,82,84,86,88,90,92,94,96,98,100,102,104,106,108,110,112,114,116,118,120,122,124,126,-1,-1,-1,-1,-1,-1,-1,-1,-1,-1,-1,-1,-1,-1,-1,-1,-1,-1,-1,-1,-1,-1,-1,-1,-1,-1,-1,-1,-1,-1,-1,-1,-1,-1,-1,-1,-1,-1,-1,-1,-1,-1,-1,-1,-1,-1,-1,-1,-1,-1,-1,-1,-1,-1,-1,-1,-1,-1,-1,-1,-1,-1,-1,-1],"split_conditions":[2E0,4.243E3,6E0,1E1,1.6E1,8.449E3,1.7E1,1.307E3,1.564E3,8.884E3,1.5747E4,4E0,7.6096E4,2.1967E4,4.8E1,4E0,4E0,3.3E1,1.9E1,7E0,6E0,1E0,5E1,2.215E3,3.603E3,1E1,1.6648E5,4E0,8E0,2.1356E4,1.84E2,4.6E2,4.1E2,1E0,2.597E3,5.22E2,4.3E1,2.597E3,2.42E2,1E0,1E0,3E0,1.4175E4,1E0,3.1E1,3.8602E4,1.6648E5,0E0,1E0,1.168E3,1E1,2.3947E4,1.1E2,1.8E1,1.60606E5,5.19E3,5.14E3,2E0,5.9807E4,3E0,3E0,9.5E1,9.7866E4,-3.179039E-2,-2.6290596E-3,-9.3752354E-2,-4.716642E-2,-4.80149E-2,1.9844824E-2,-2.5930576E-2,-1.2419858E-2,-9.3502775E-2,-5.956077E-2,-1.4039731E-1,-4.6808742E-2,-4.317359E-2,-2.9113123E-2,-6.084065E-2,-4.035015E-2,-4.064117E-2,1.8111523E-2,-1.4768637E-2,-3.1105527E-3,5.22234E-2,-2.3145527E-3,7.598181E-3,2.353034E-2,-3.764419E-2,-1.2910137E-2,-1.3771055E-2,-3.4005485E-2,2.3854612E-3,2.536972E-2,-2.6037548E-2,7.77885E-2,2.4102056E-2,-3.6987623E-3,-3.209683E-2,4.3104794E-2,-4.6617225E-2,-1.5498197E-2,9.894984E-3,-3.7561564E-3,3.4201995E-2,5.450852E-2,1.940573E-2,-3.211978E-2,5.7415616E-2,3.169234E-2,1.0986424E-1,6.0318187E-2,3.4516793E-2,6.855297E-2,1.6365392E-3,3.0718496E-2,9.2758894E-2,6.599992E-2,4.4762786E-2,6.367085E-2,7.2203256E-2,4.2558335E-2,1.01962365E-1,7.916199E-2,1.3766432E-1,1.061081E-1,9.5289625E-2,1.5679552E-1],"split_indices":[2,4,2,3,3,4,2,4,4,4,4,3,4,4,2,3,3,3,3,3,3,21,3,4,4,3,4,3,3,4,2,4,4,3,4,4,3,4,0,3,2,5,4,9,3,4,4,3,3,4,3,4,3,3,1,4,4,5,4,3,5,0,4,0,0,0,0,0,0,0,0,0,0,0,0,0,0,0,0,0,0,0,0,0,0,0,0,0,0,0,0,0,0,0,0,0,0,0,0,0,0,0,0,0,0,0,0,0,0,0,0,0,0,0,0,0,0,0,0,0,0,0,0,0,0,0,0],"split_type":[0,0,0,0,0,0,0,0,0,0,0,0,0,0,0,0,0,0,0,0,0,0,0,0,0,0,0,0,0,0,0,0,0,0,0,0,0,0,0,0,0,0,0,0,0,0,0,0,0,0,0,0,0,0,0,0,0,0,0,0,0,0,0,0,0,0,0,0,0,0,0,0,0,0,0,0,0,0,0,0,0,0,0,0,0,0,0,0,0,0,0,0,0,0,0,0,0,0,0,0,0,0,0,0,0,0,0,0,0,0,0,0,0,0,0,0,0,0,0,0,0,0,0,0,0,0,0],"sum_hessian":[5.5824E4,3.4354E4,2.147E4,1.5981E4,1.8373E4,1.4547E4,6.923E3,9.378E3,6.603E3,9.781E3,8.592E3,6.262E3,8.285E3,5.074E3,1.849E3,4.206E3,5.172E3,1.332E3,5.271E3,5.455E3,4.326E3,4.608E3,3.984E3,1.721E3,4.541E3,7.43E3,8.55E2,2.305E3,2.769E3,1.391E3,4.58E2,2.325E3,1.881E3,6E2,4.572E3,1.277E3,5.5E1,4.208E3,1.063E3,1.149E3,4.306E3,3.33E2,3.993E3,2.603E3,2.005E3,2.257E3,1.727E3,1.172E3,5.49E2,1.576E3,2.965E3,2.201E3,5.229E3,6.18E2,2.37E2,8.17E2,1.488E3,4.68E2,2.301E3,2.34E2,1.157E3,3.98E2,6E1,1.622E3,7.03E2,2.51E2,1.63E3,5.5E1,5.45E2,2.496E3,2.076E3,1.09E2,1.168E3,3.5E1,2E1,1.726E3,2.482E3,7.51E2,3.12E2,6.6E1,1.083E3,2.575E3,1.731E3,2.9E2,4.3E1,2.116E3,1.877E3,2.321E3,2.82E2,1.42E3,5.85E2,1.628E3,6.29E2,1.685E3,4.2E1,4.06E2,7.66E2,5.1E1,4.98E2,1.95E2,1.381E3,1.641E3,1.324E3,1.709E3,4.92E2,5.006E3,2.23E2,2.61E2,3.57E2,3.6E1,2.01E2,5.4E2,2.77E2,1.72E2,1.316E3,1.87E2,2.81E2,1.048E3,1.253E3,1.44E2,9E1,2.38E2,9.19E2,3.7E1,3.61E2,7E0,5.3E1],"tree_param":{"num_deleted":"0","num_feature":"22","num_nodes":"127","size_leaf_vector":"1"}},{"base_weights":[2.717361E-4,-2.1089914E-1,3.381589E-1,-3.987041E-1,-7.883309E-2,1.9974001E-1,7.266536E-1,-2.60632E-1,-4.9206495E-1,-5.8888127E-3,-2.8174672E-1,3.9042853E-2,3.371235E-1,5.821146E-1,1.0224485E0,-4.003103E-1,-1.14011474E-1,-8.113991E-1,-4.430336E-1,-1.317862E-1,1.4236246E-1,-3.608963E-1,-6.7054766E-4,1.988213E-1,-1.8805489E-2,2.6626667E-1,4.7814775E-1,4.8423892E-1,7.535429E-1,9.2170244E-1,1.3257517E0,-2.2624682E-1,-5.94977E-1,2.8004277E-1,-1.7862761E-1,-1.1598693E0,-7.4511313E-1,-3.7402624E-1,-5.514221E-1,-5.7748468E-3,-2.5902689E-1,7.962592E-2,3.159277E-1,-5.011119E-1,-2.980248E-1,-1.9207181E-1,2.3110285E-1,7.485609E-2,4.3155888E-1,-2.1655962E-1,6.640379E-2,5.1720035E-1,1.9869772E-1,-2.0619394E-1,5.1888335E-1,5.8987564E-1,3.734559E-1,7.370719E-1,1.2243409E0,8.5546666E-1,1.0914996E0,1.2221428E0,1.6050711E0,-5.0197005E-2,-1.2030708E-2,-8.1780806E-2,-3.857243E-2,-4.237496E-2,3.1942066E-2,-2.0118857E-2,-6.15999E-3,-1.3893941E-1,-8.640095E-2,-5.666474E-2,-1.0925216E-1,-4.002854E-2,-2.55817E-2,-4.8033837E-2,-3.2631814E-2,1.729407E-2,-5.415973E-3,-2.5997767E-2,-1.14518795E-2,2.0748878E-2,-1.4028972E-3,1.4852835E-2,2.9399108E-2,-4.07062E-2,7.8593895E-2,-1.341668E-2,-3.6830556E-2,2.4275452E-2,-2.0722017E-2,1.0859832E-2,5.838711E-2,2.3903128E-2,-3.7053216E-3,-2.9298665E-2,4.1268963E-2,-4.2511467E-2,-1.3813411E-2,1.273141E-2,-1.4257721E-3,-1.3763714E-2,4.3281052E-2,2.23933E-2,7.946565E-3,3.6233213E-2,-3.6634807E-2,4.3241434E-2,4.9959454E-3,3.591076E-2,5.667909E-2,-7.411708E-3,3.2017667E-2,7.084546E-2,5.4166947E-2,5.257844E-2,1.23614825E-1,7.77821E-2,6.271275E-2,9.878911E-2,8.056682E-2,1.3676107E-1,9.515904E-2,8.9069284E-2,1.323159E-1],"categories":[],"categories_nodes":[],"categories_segments":[],"categories_sizes":[],"default_left":[0,0,0,0,0,0,0,0,0,0,0,0,0,0,0,0,0,0,0,0,0,0,0,0,0,0,0,0,0,0,0,0,0,0,0,0,0,0,0,0,0,0,0,0,0,0,0,0,0,0,0,0,0,0,0,0,0,0,0,0,0,0,0,0,0,0,0,0,0,0,0,0,0,0,0,0,0,0,0,0,0,0,0,0,0,0,0,0,0,0,0,0,0,0,0,0,0,0,0,0,0,0,0,0,0,0,0,0,0,0,0,0,0,0,0,0,0,0,0,0,0,0,0,0,0,0,0],"id":14,"left_children":[1,3,5,7,9,11,13,15,17,19,21,23,25,27,29,31,33,35,37,39,41,43,45,47,49,51,53,55,57,59,61,63,65,67,69,71,73,75,77,79,81,83,85,87,89,91,93,95,97,99,101,103,105,107,109,111,113,115,117,119,121,123,125,-1,-1,-1,-1,-1,-1,-1,-1,-1,-1,-1,-1,-1,-1,-1,-1,-1,-1,-1,-1,-1,-1,-1,-1,-1,-1,-1,-1,-1,-1,-1,-1,-1,